2.561555496992058006e-02 -3.429589340982017176e-02 -3.438211537654559807e-02 9.993600326096082915e-04 6.406456935722686374e-01 -4.316921368681742033e-02 7.448161432078563571e-02 -8.435220613755320396e-02 -3.508518791002630810e-02 4.744568176147864746e-01 1.508557601039193889e-02
2.561555496992053843e-02 -3.429589340982035217e-02 -3.438211537654558420e-02 9.993600326096108936e-04 6.406456935722683044e-01 -4.316921368681719134e-02 7.448161432078562183e-02 -8.435220613755337049e-02 -3.508518791002626647e-02 4.744568176147867522e-01 1.508557601039191634e-02
2.561555496992052802e-02 -3.429589340982028972e-02 -3.438211537654552868e-02 9.993600326096106767e-04 6.406456935722683044e-01 -4.316921368681728849e-02 7.448161432078509447e-02 -8.435220613755316232e-02 -3.508518791002598891e-02 4.744568176147867522e-01 1.508557601039194583e-02
2.561555496992053149e-02 -3.429589340982030360e-02 -3.438211537654548705e-02 9.993600326096098094e-04 6.406456935722685264e-01 -4.316921368681724686e-02 7.448161432078491406e-02 -8.435220613755317620e-02 -3.508518791002596116e-02 4.744568176147867522e-01 1.508557601039195104e-02
2.561555496992053843e-02 -3.429589340982026890e-02 -3.438211537654534827e-02 9.993600326096113273e-04 6.406456935722683044e-01 -4.316921368681741339e-02 7.448161432078521937e-02 -8.435220613755338437e-02 -3.508518791002610687e-02 4.744568176147869187e-01 1.508557601039193716e-02
2.561555496992053149e-02 -3.429589340982020645e-02 -3.438211537654509847e-02 9.993600326096091589e-04 6.406456935722684154e-01 -4.316921368681772564e-02 7.448161432078452548e-02 -8.435220613755291252e-02 -3.508518791002580850e-02 4.744568176147865302e-01 1.508557601039194757e-02
2.561555496992053496e-02 -3.429589340982001217e-02 -3.438211537654524419e-02 9.993600326096108936e-04 6.406456935722684154e-01 -4.316921368681764931e-02 7.448161432078459487e-02 -8.435220613755296803e-02 -3.508518791002569748e-02 4.744568176147865302e-01 1.508557601039195624e-02
2.561555496992054884e-02 -3.429589340982012319e-02 -3.438211537654545930e-02 9.993600326096126283e-04 6.406456935722684154e-01 -4.316921368681757992e-02 7.448161432078548305e-02 -8.435220613755312069e-02 -3.508518791002609299e-02 4.744568176147863081e-01 1.508557601039196491e-02
2.561555496992053149e-02 -3.429589340982024115e-02 -3.438211537654525113e-02 9.993600326096078578e-04 6.406456935722685264e-01 -4.316921368681745502e-02 7.448161432078477528e-02 -8.435220613755317620e-02 -3.508518791002580850e-02 4.744568176147865302e-01 1.508557601039197706e-02
2.561555496992052108e-02 -3.429589340982006768e-02 -3.438211537654511929e-02 9.993600326096078578e-04 6.406456935722687485e-01 -4.316921368681773258e-02 7.448161432078435895e-02 -8.435220613755306518e-02 -3.508518791002566972e-02 4.744568176147865857e-01 1.508557601039196491e-02
2.561555496992053149e-02 -3.429589340982019258e-02 -3.438211537654507766e-02 9.993600326096102431e-04 6.406456935722684154e-01 -4.316921368681780197e-02 7.448161432078480304e-02 -8.435220613755310681e-02 -3.508518791002577381e-02 4.744568176147865857e-01 1.508557601039197359e-02
2.561555496992054884e-02 -3.429589340982010237e-02 -3.438211537654491806e-02 9.993600326096052557e-04 6.406456935722685264e-01 -4.316921368681789911e-02 7.448161432078423405e-02 -8.435220613755319008e-02 -3.508518791002550319e-02 4.744568176147867522e-01 1.508557601039196838e-02
2.561555496992053149e-02 -3.429589340982010237e-02 -3.438211537654477928e-02 9.993600326096028705e-04 6.406456935722686374e-01 -4.316921368681800320e-02 7.448161432078397037e-02 -8.435220613755302355e-02 -3.508518791002536441e-02 4.744568176147865302e-01 1.508557601039200655e-02
2.561555496992053843e-02 -3.429589340982016482e-02 -3.438211537654489031e-02 9.993600326096059062e-04 6.406456935722683044e-01 -4.316921368681785054e-02 7.448161432078399813e-02 -8.435220613755310681e-02 -3.508518791002533666e-02 4.744568176147868077e-01 1.508557601039198053e-02
2.561555496992053843e-02 -3.429589340982016482e-02 -3.438211537654477234e-02 9.993600326096050389e-04 6.406456935722684154e-01 -4.316921368681814197e-02 7.448161432078448385e-02 -8.435220613755309294e-02 -3.508518791002553788e-02 4.744568176147866412e-01 1.508557601039200481e-02
2.561555496992052455e-02 -3.429589340982018564e-02 -3.438211537654455724e-02 9.993600326096022200e-04 6.406456935722685264e-01 -4.316921368681800320e-02 7.448161432078349853e-02 -8.435220613755330110e-02 -3.508518791002513543e-02 4.744568176147870853e-01 1.508557601039197706e-02
2.561555496992052108e-02 -3.429589340982009543e-02 -3.438211537654491806e-02 9.993600326096072073e-04 6.406456935722684154e-01 -4.316921368681789911e-02 7.448161432078378996e-02 -8.435220613755303742e-02 -3.508518791002517012e-02 4.744568176147868077e-01 1.508557601039198746e-02
2.561555496992053496e-02 -3.429589340982017176e-02 -3.438211537654505684e-02 9.993600326096091589e-04 6.406456935722685264e-01 -4.316921368681780197e-02 7.448161432078406752e-02 -8.435220613755299579e-02 -3.508518791002539911e-02 4.744568176147865857e-01 1.508557601039199093e-02
2.561555496992052108e-02 -3.429589340982014400e-02 -3.438211537654481398e-02 9.993600326096072073e-04 6.406456935722685264e-01 -4.316921368681795462e-02 7.448161432078397037e-02 -8.435220613755313457e-02 -3.508518791002521175e-02 4.744568176147867522e-01 1.508557601039198399e-02
2.561555496992054884e-02 -3.429589340982015094e-02 -3.438211537654465438e-02 9.993600326096048220e-04 6.406456935722685264e-01 -4.316921368681816279e-02 7.448161432078369282e-02 -8.435220613755303742e-02 -3.508518791002512849e-02 4.744568176147865857e-01 1.508557601039199787e-02
2.561555496992053843e-02 -3.429589340982010931e-02 -3.438211537654450867e-02 9.993600326096061231e-04 6.406456935722687485e-01 -4.316921368681844728e-02 7.448161432078444222e-02 -8.435220613755306518e-02 -3.508518791002549625e-02 4.744568176147863081e-01 1.508557601039201175e-02
2.561555496992051761e-02 -3.429589340982017870e-02 -3.438211537654431438e-02 9.993600326096002684e-04 6.406456935722685264e-01 -4.316921368681830157e-02 7.448161432078352628e-02 -8.435220613755300967e-02 -3.508518791002505216e-02 4.744568176147866412e-01 1.508557601039201695e-02
2.561555496992051761e-02 -3.429589340982017870e-02 -3.438211537654435601e-02 9.993600326096011358e-04 6.406456935722687485e-01 -4.316921368681827381e-02 7.448161432078274913e-02 -8.435220613755309294e-02 -3.508518791002466358e-02 4.744568176147869742e-01 1.508557601039200481e-02
2.561555496992052108e-02 -3.429589340982004686e-02 -3.438211537654446009e-02 9.993600326096063399e-04 6.406456935722687485e-01 -4.316921368681846810e-02 7.448161432078388711e-02 -8.435220613755312069e-02 -3.508518791002504522e-02 4.744568176147865857e-01 1.508557601039202563e-02
2.561555496992052455e-02 -3.429589340982001910e-02 -3.438211537654444622e-02 9.993600326096041715e-04 6.406456935722686374e-01 -4.316921368681833626e-02 7.448161432078338751e-02 -8.435220613755313457e-02 -3.508518791002491338e-02 4.744568176147866967e-01 1.508557601039202389e-02
2.561555496992048986e-02 -3.429589340981992890e-02 -3.438211537654426581e-02 9.993600326096000516e-04 6.406456935722686374e-01 -4.316921368681858606e-02 7.448161432078312383e-02 -8.435220613755310681e-02 -3.508518791002476767e-02 4.744568176147865857e-01 1.508557601039201522e-02
2.561555496992049333e-02 -3.429589340981986645e-02 -3.438211537654406458e-02 9.993600326095981000e-04 6.406456935722685264e-01 -4.316921368681864157e-02 7.448161432078269362e-02 -8.435220613755310681e-02 -3.508518791002453868e-02 4.744568176147868632e-01 1.508557601039204124e-02
2.561555496992048986e-02 -3.429589340981965828e-02 -3.438211537654412009e-02 9.993600326095972326e-04 6.406456935722687485e-01 -4.316921368681870402e-02 7.448161432078309607e-02 -8.435220613755312069e-02 -3.508518791002477460e-02 4.744568176147863636e-01 1.508557601039204991e-02
2.561555496992050374e-02 -3.429589340981974155e-02 -3.438211537654387723e-02 9.993600326095989674e-04 6.406456935722685264e-01 -4.316921368681902321e-02 7.448161432078316546e-02 -8.435220613755310681e-02 -3.508518791002482318e-02 4.744568176147867522e-01 1.508557601039203951e-02
2.561555496992052455e-02 -3.429589340981990114e-02 -3.438211537654434213e-02 9.993600326096078578e-04 6.406456935722685264e-01 -4.316921368681859994e-02 7.448161432078224953e-02 -8.435220613755267660e-02 -3.508518791002438603e-02 4.744568176147869742e-01 1.508557601039203951e-02
2.561555496992050027e-02 -3.429589340981967216e-02 -3.438211537654389804e-02 9.993600326095987505e-04 6.406456935722688595e-01 -4.316921368681917587e-02 7.448161432078298505e-02 -8.435220613755296803e-02 -3.508518791002467746e-02 4.744568176147864746e-01 1.508557601039206032e-02
2.561555496992048292e-02 -3.429589340981966522e-02 -3.438211537654365518e-02 9.993600326095924621e-04 6.406456935722689705e-01 -4.316921368681933546e-02 7.448161432078308219e-02 -8.435220613755314845e-02 -3.508518791002463583e-02 4.744568176147861971e-01 1.508557601039206726e-02
2.561555496992048639e-02 -3.429589340981967910e-02 -3.438211537654379396e-02 9.993600326095965821e-04 6.406456935722685264e-01 -4.316921368681916199e-02 7.448161432078261035e-02 -8.435220613755307906e-02 -3.508518791002438603e-02 4.744568176147867522e-01 1.508557601039205859e-02
2.561555496992052108e-02 -3.429589340981972073e-02 -3.438211537654354416e-02 9.993600326095928958e-04 6.406456935722687485e-01 -4.316921368681924526e-02 7.448161432078254096e-02 -8.435220613755294028e-02 -3.508518791002457338e-02 4.744568176147865857e-01 1.508557601039207594e-02
2.561555496992051068e-02 -3.429589340981967910e-02 -3.438211537654386335e-02 9.993600326095991842e-04 6.406456935722688595e-01 -4.316921368681911342e-02 7.448161432078274913e-02 -8.435220613755298191e-02 -3.508518791002455950e-02 4.744568176147865857e-01 1.508557601039207594e-02
2.561555496992048639e-02 -3.429589340981970685e-02 -3.438211537654324579e-02 9.993600326095879085e-04 6.406456935722687485e-01 -4.316921368681949506e-02 7.448161432078267974e-02 -8.435220613755323171e-02 -3.508518791002451093e-02 4.744568176147866412e-01 1.508557601039206726e-02
2.561555496992050027e-02 -3.429589340981945011e-02 -3.438211537654314864e-02 9.993600326095866074e-04 6.406456935722687485e-01 -4.316921368681987670e-02 7.448161432078291566e-02 -8.435220613755312069e-02 -3.508518791002467052e-02 4.744568176147862526e-01 1.508557601039210022e-02
2.561555496992051068e-02 -3.429589340981934603e-02 -3.438211537654348865e-02 9.993600326095922453e-04 6.406456935722687485e-01 -4.316921368681991833e-02 7.448161432078310995e-02 -8.435220613755284313e-02 -3.508518791002461501e-02 4.744568176147861971e-01 1.508557601039211236e-02
2.561555496992049680e-02 -3.429589340981951950e-02 -3.438211537654301680e-02 9.993600326095831380e-04 6.406456935722689705e-01 -4.316921368681982119e-02 7.448161432078262423e-02 -8.435220613755316232e-02 -3.508518791002455256e-02 4.744568176147863081e-01 1.508557601039210369e-02
2.561555496992048639e-02 -3.429589340981937379e-02 -3.438211537654264904e-02 9.993600326095788012e-04 6.406456935722689705e-01 -4.316921368682032772e-02 7.448161432078201361e-02 -8.435220613755298191e-02 -3.508518791002418480e-02 4.744568176147862526e-01 1.508557601039212277e-02
2.561555496992048986e-02 -3.429589340981945011e-02 -3.438211537654301680e-02 9.993600326095816201e-04 6.406456935722688595e-01 -4.316921368681998772e-02 7.448161432078211075e-02 -8.435220613755288477e-02 -3.508518791002417092e-02 4.744568176147864191e-01 1.508557601039212277e-02
2.561555496992045863e-02 -3.429589340981934603e-02 -3.438211537654289884e-02 9.993600326095761991e-04 6.406456935722689705e-01 -4.316921368681997384e-02 7.448161432078198585e-02 -8.435220613755287089e-02 -3.508518791002410153e-02 4.744568176147860861e-01 1.508557601039213318e-02
2.561555496992047945e-02 -3.429589340981947787e-02 -3.438211537654291272e-02 9.993600326095801022e-04 6.406456935722691926e-01 -4.316921368681986282e-02 7.448161432078179156e-02 -8.435220613755292640e-02 -3.508518791002425419e-02 4.744568176147864191e-01 1.508557601039213665e-02
2.561555496992048292e-02 -3.429589340981918644e-02 -3.438211537654280864e-02 9.993600326095757654e-04 6.406456935722690815e-01 -4.316921368682028609e-02 7.448161432078294342e-02 -8.435220613755325947e-02 -3.508518791002468440e-02 4.744568176147858640e-01 1.508557601039212798e-02
2.561555496992047251e-02 -3.429589340981935991e-02 -3.438211537654287803e-02 9.993600326095816201e-04 6.406456935722690815e-01 -4.316921368682002241e-02 7.448161432078177768e-02 -8.435220613755282926e-02 -3.508518791002412235e-02 4.744568176147861416e-01 1.508557601039213318e-02
2.561555496992047251e-02 -3.429589340981922807e-02 -3.438211537654255190e-02 9.993600326095770665e-04 6.406456935722691926e-01 -4.316921368682067467e-02 7.448161432078281852e-02 -8.435220613755288477e-02 -3.508518791002461501e-02 4.744568176147858640e-01 1.508557601039215573e-02
2.561555496992045169e-02 -3.429589340981922113e-02 -3.438211537654257965e-02 9.993600326095785844e-04 6.406456935722689705e-01 -4.316921368682045956e-02 7.448161432078166666e-02 -8.435220613755278762e-02 -3.508518791002403908e-02 4.744568176147862526e-01 1.508557601039212624e-02
2.561555496992048639e-02 -3.429589340981930440e-02 -3.438211537654253108e-02 9.993600326095790180e-04 6.406456935722690815e-01 -4.316921368682055671e-02 7.448161432078216626e-02 -8.435220613755274599e-02 -3.508518791002419868e-02 4.744568176147858640e-01 1.508557601039217308e-02
2.561555496992045516e-02 -3.429589340981935297e-02 -3.438211537654246863e-02 9.993600326095801022e-04 6.406456935722689705e-01 -4.316921368682066079e-02 7.448161432078229116e-02 -8.435220613755295416e-02 -3.508518791002423337e-02 4.744568176147860861e-01 1.508557601039215226e-02
2.561555496992046904e-02 -3.429589340981930440e-02 -3.438211537654221883e-02 9.993600326095703444e-04 6.406456935722690815e-01 -4.316921368682073712e-02 7.448161432078216626e-02 -8.435220613755307906e-02 -3.508518791002420562e-02 4.744568176147861971e-01 1.508557601039218002e-02
2.561555496992047598e-02 -3.429589340981917950e-02 -3.438211537654232985e-02 9.993600326095764159e-04 6.406456935722688595e-01 -4.316921368682082732e-02 7.448161432078233279e-02 -8.435220613755292640e-02 -3.508518791002426807e-02 4.744568176147861416e-01 1.508557601039216094e-02
2.561555496992046557e-02 -3.429589340981922113e-02 -3.438211537654212169e-02 9.993600326095729465e-04 6.406456935722690815e-01 -4.316921368682107019e-02 7.448161432078219402e-02 -8.435220613755305130e-02 -3.508518791002415010e-02 4.744568176147861416e-01 1.508557601039215747e-02
2.561555496992046557e-02 -3.429589340981924889e-02 -3.438211537654208699e-02 9.993600326095718623e-04 6.406456935722691926e-01 -4.316921368682121590e-02 7.448161432078201361e-02 -8.435220613755300967e-02 -3.508518791002394194e-02 4.744568176147862526e-01 1.508557601039219563e-02
2.561555496992047251e-02 -3.429589340981941542e-02 -3.438211537654227434e-02 9.993600326095729465e-04 6.406456935722691926e-01 -4.316921368682085508e-02 7.448161432078272137e-02 -8.435220613755330110e-02 -3.508518791002431664e-02 4.744568176147861416e-01 1.508557601039217308e-02
2.561555496992045169e-02 -3.429589340981919338e-02 -3.438211537654221189e-02 9.993600326095757654e-04 6.406456935722690815e-01 -4.316921368682103549e-02 7.448161432078155564e-02 -8.435220613755274599e-02 -3.508518791002374765e-02 4.744568176147862526e-01 1.508557601039216961e-02
2.561555496992045169e-02 -3.429589340981930440e-02 -3.438211537654238537e-02 9.993600326095788012e-04 6.406456935722688595e-01 -4.316921368682071630e-02 7.448161432078168054e-02 -8.435220613755294028e-02 -3.508518791002385173e-02 4.744568176147864746e-01 1.508557601039215400e-02
2.561555496992045863e-02 -3.429589340981931134e-02 -3.438211537654227434e-02 9.993600326095768496e-04 6.406456935722689705e-01 -4.316921368682086202e-02 7.448161432078213851e-02 -8.435220613755287089e-02 -3.508518791002401827e-02 4.744568176147860306e-01 1.508557601039219043e-02
2.561555496992046557e-02 -3.429589340981933215e-02 -3.438211537654243394e-02 9.993600326095790180e-04 6.406456935722691926e-01 -4.316921368682088977e-02 7.448161432078248545e-02 -8.435220613755305130e-02 -3.508518791002416398e-02 4.744568176147860861e-01 1.508557601039218522e-02
2.561555496992046210e-02 -3.429589340981933909e-02 -3.438211537654220495e-02 9.993600326095720791e-04 6.406456935722691926e-01 -4.316921368682113264e-02 7.448161432078256872e-02 -8.435220613755299579e-02 -3.508518791002417092e-02 4.744568176147859750e-01 1.508557601039218175e-02
2.561555496992042741e-02 -3.429589340981931828e-02 -3.438211537654178862e-02 9.993600326095675255e-04 6.406456935722691926e-01 -4.316921368682141713e-02 7.448161432078186095e-02 -8.435220613755257946e-02 -3.508518791002383785e-02 4.744568176147858085e-01 1.508557601039220430e-02
2.561555496992041006e-02 -3.429589340981918644e-02 -3.438211537654203842e-02 9.993600326095751149e-04 6.406456935722687485e-01 -4.316921368682123672e-02 7.448161432078150013e-02 -8.435220613755235741e-02 -3.508518791002377540e-02 4.744568176147860306e-01 1.508557601039220257e-02
2.561555496992045863e-02 -3.429589340981948481e-02 -3.438211537654254496e-02 9.993600326095788012e-04 6.406456935722689705e-01 -4.316921368682088284e-02 7.448161432078224953e-02 -8.435220613755269048e-02 -3.508518791002396275e-02 4.744568176147860861e-01 1.508557601039221992e-02
2.561555496992046210e-02 -3.429589340981954032e-02 -3.438211537654222577e-02 9.993600326095746812e-04 6.406456935722690815e-01 -4.316921368682104937e-02 7.448161432078188871e-02 -8.435220613755270436e-02 -3.508518791002375459e-02 4.744568176147859750e-01 1.508557601039222686e-02
2.561555496992045169e-02 -3.429589340981931828e-02 -3.438211537654203148e-02 9.993600326095714286e-04 6.406456935722690815e-01 -4.316921368682143101e-02 7.448161432078199973e-02 -8.435220613755256558e-02 -3.508518791002383092e-02 4.744568176147858640e-01 1.508557601039222686e-02
2.561555496992043088e-02 -3.429589340981935297e-02 -3.438211537654186495e-02 9.993600326095729465e-04 6.406456935722690815e-01 -4.316921368682141713e-02 7.448161432078133359e-02 -8.435220613755245456e-02 -3.508518791002352560e-02 4.744568176147859195e-01 1.508557601039222686e-02
2.561555496992043782e-02 -3.429589340981930440e-02 -3.438211537654226740e-02 9.993600326095744644e-04 6.406456935722687485e-01 -4.316921368682107712e-02 7.448161432078138910e-02 -8.435220613755251007e-02 -3.508518791002357418e-02 4.744568176147864191e-01 1.508557601039222512e-02
2.561555496992046904e-02 -3.429589340981949869e-02 -3.438211537654223965e-02 9.993600326095788012e-04 6.406456935722688595e-01 -4.316921368682120896e-02 7.448161432078143074e-02 -8.435220613755251007e-02 -3.508518791002344928e-02 4.744568176147862526e-01 1.508557601039221992e-02
2.561555496992043088e-02 -3.429589340981925583e-02 -3.438211537654211475e-02 9.993600326095742475e-04 6.406456935722690815e-01 -4.316921368682155591e-02 7.448161432078158339e-02 -8.435220613755238517e-02 -3.508518791002348397e-02 4.744568176147858640e-01 1.508557601039223900e-02
2.561555496992041353e-02 -3.429589340981933215e-02 -3.438211537654183719e-02 9.993600326095703444e-04 6.406456935722690815e-01 -4.316921368682164611e-02 7.448161432078154176e-02 -8.435220613755239905e-02 -3.508518791002358111e-02 4.744568176147859195e-01 1.508557601039224420e-02
2.561555496992043782e-02 -3.429589340981933909e-02 -3.438211537654237149e-02 9.993600326095742475e-04 6.406456935722691926e-01 -4.316921368682120203e-02 7.448161432078190258e-02 -8.435220613755249619e-02 -3.508518791002377540e-02 4.744568176147858640e-01 1.508557601039225635e-02
2.561555496992042394e-02 -3.429589340981947787e-02 -3.438211537654185107e-02 9.993600326095699107e-04 6.406456935722691926e-01 -4.316921368682147264e-02 7.448161432078144462e-02 -8.435220613755227415e-02 -3.508518791002351866e-02 4.744568176147856420e-01 1.508557601039226502e-02
2.561555496992042394e-02 -3.429589340981919338e-02 -3.438211537654153882e-02 9.993600326095683929e-04 6.406456935722688595e-01 -4.316921368682202081e-02 7.448161432078176381e-02 -8.435220613755245456e-02 -3.508518791002362969e-02 4.744568176147859750e-01 1.508557601039226502e-02
2.561555496992041353e-02 -3.429589340981917256e-02 -3.438211537654162903e-02 9.993600326095679592e-04 6.406456935722691926e-01 -4.316921368682206245e-02 7.448161432078197197e-02 -8.435220613755260721e-02 -3.508518791002361581e-02 4.744568176147856420e-01 1.508557601039226502e-02
2.561555496992042741e-02 -3.429589340981920031e-02 -3.438211537654180944e-02 9.993600326095725128e-04 6.406456935722690815e-01 -4.316921368682178489e-02 7.448161432078130584e-02 -8.435220613755231578e-02 -3.508518791002344234e-02 4.744568176147859750e-01 1.508557601039227369e-02
2.561555496992039271e-02 -3.429589340981924195e-02 -3.438211537654219802e-02 9.993600326095735970e-04 6.406456935722691926e-01 -4.316921368682147958e-02 7.448161432078223565e-02 -8.435220613755244068e-02 -3.508518791002371989e-02 4.744568176147853644e-01 1.508557601039228410e-02
2.561555496992042394e-02 -3.429589340981942930e-02 -3.438211537654180944e-02 9.993600326095692602e-04 6.406456935722689705e-01 -4.316921368682172938e-02 7.448161432078119482e-02 -8.435220613755221863e-02 -3.508518791002323417e-02 4.744568176147858640e-01 1.508557601039229104e-02
2.561555496992041353e-02 -3.429589340981922807e-02 -3.438211537654203148e-02 9.993600326095696939e-04 6.406456935722693036e-01 -4.316921368682160448e-02 7.448161432078131972e-02 -8.435220613755231578e-02 -3.508518791002337989e-02 4.744568176147857530e-01 1.508557601039229451e-02
2.561555496992040312e-02 -3.429589340981924195e-02 -3.438211537654179556e-02 9.993600326095666581e-04 6.406456935722691926e-01 -4.316921368682153509e-02 7.448161432078120869e-02 -8.435220613755242680e-02 -3.508518791002338683e-02 4.744568176147857530e-01 1.508557601039228757e-02
2.561555496992039271e-02 -3.429589340981938766e-02 -3.438211537654171229e-02 9.993600326095653571e-04 6.406456935722693036e-01 -4.316921368682169469e-02 7.448161432078138910e-02 -8.435220613755263497e-02 -3.508518791002337989e-02 4.744568176147859195e-01 1.508557601039228063e-02
2.561555496992038577e-02 -3.429589340981927664e-02 -3.438211537654162903e-02 9.993600326095679592e-04 6.406456935722689705e-01 -4.316921368682197918e-02 7.448161432078125033e-02 -8.435220613755206598e-02 -3.508518791002333131e-02 4.744568176147857530e-01 1.508557601039232053e-02
2.561555496992038577e-02 -3.429589340981927664e-02 -3.438211537654153188e-02 9.993600326095673086e-04 6.406456935722690815e-01 -4.316921368682209020e-02 7.448161432078105604e-02 -8.435220613755212149e-02 -3.508518791002319254e-02 4.744568176147858085e-01 1.508557601039230318e-02
2.561555496992039271e-02 -3.429589340981912399e-02 -3.438211537654146249e-02 9.993600326095660076e-04 6.406456935722690815e-01 -4.316921368682218735e-02 7.448161432078062583e-02 -8.435220613755196883e-02 -3.508518791002308845e-02 4.744568176147859195e-01 1.508557601039232574e-02
2.561555496992038577e-02 -3.429589340981924195e-02 -3.438211537654176086e-02 9.993600326095707781e-04 6.406456935722689705e-01 -4.316921368682196530e-02 7.448161432078133359e-02 -8.435220613755207986e-02 -3.508518791002328968e-02 4.744568176147857530e-01 1.508557601039231012e-02
2.561555496992038577e-02 -3.429589340981931134e-02 -3.438211537654173311e-02 9.993600326095720791e-04 6.406456935722689705e-01 -4.316921368682204163e-02 7.448161432078129196e-02 -8.435220613755202435e-02 -3.508518791002324805e-02 4.744568176147857530e-01 1.508557601039231706e-02
2.561555496992037537e-02 -3.429589340981943624e-02 -3.438211537654195515e-02 9.993600326095740307e-04 6.406456935722689705e-01 -4.316921368682185428e-02 7.448161432078172217e-02 -8.435220613755213537e-02 -3.508518791002342846e-02 4.744568176147857530e-01 1.508557601039232053e-02
2.561555496992037190e-02 -3.429589340981929052e-02 -3.438211537654183025e-02 9.993600326095731633e-04 6.406456935722689705e-01 -4.316921368682210408e-02 7.448161432078156952e-02 -8.435220613755198271e-02 -3.508518791002333825e-02 4.744568176147856420e-01 1.508557601039232400e-02
2.561555496992039271e-02 -3.429589340981926276e-02 -3.438211537654139310e-02 9.993600326095642729e-04 6.406456935722691926e-01 -4.316921368682244409e-02 7.448161432078144462e-02 -8.435220613755219088e-02 -3.508518791002325499e-02 4.744568176147856975e-01 1.508557601039232053e-02
2.561555496992035802e-02 -3.429589340981930440e-02 -3.438211537654170535e-02 9.993600326095690434e-04 6.406456935722693036e-01 -4.316921368682228449e-02 7.448161432078261035e-02 -8.435220613755253782e-02 -3.508518791002369908e-02 4.744568176147854754e-01 1.508557601039232747e-02
2.561555496992035108e-02 -3.429589340981923501e-02 -3.438211537654156658e-02 9.993600326095664413e-04 6.406456935722694146e-01 -4.316921368682238164e-02 7.448161432078194422e-02 -8.435220613755212149e-02 -3.508518791002341458e-02 4.744568176147851979e-01 1.508557601039232747e-02
2.561555496992036496e-02 -3.429589340981917950e-02 -3.438211537654153882e-02 9.993600326095668750e-04 6.406456935722689705e-01 -4.316921368682240245e-02 7.448161432078212463e-02 -8.435220613755221863e-02 -3.508518791002355336e-02 4.744568176147855865e-01 1.508557601039232920e-02
2.561555496992038924e-02 -3.429589340981934603e-02 -3.438211537654172617e-02 9.993600326095644897e-04 6.406456935722693036e-01 -4.316921368682222898e-02 7.448161432078233279e-02 -8.435220613755244068e-02 -3.508518791002351866e-02 4.744568176147853644e-01 1.508557601039233961e-02
2.561555496992038924e-02 -3.429589340981933909e-02 -3.438211537654160821e-02 9.993600326095707781e-04 6.406456935722690815e-01 -4.316921368682232613e-02 7.448161432078111155e-02 -8.435220613755188557e-02 -3.508518791002307458e-02 4.744568176147858085e-01 1.508557601039234135e-02
2.561555496992035108e-02 -3.429589340981914480e-02 -3.438211537654151106e-02 9.993600326095668750e-04 6.406456935722689705e-01 -4.316921368682245796e-02 7.448161432078137523e-02 -8.435220613755184393e-02 -3.508518791002312315e-02 4.744568176147854754e-01 1.508557601039233788e-02
2.561555496992036149e-02 -3.429589340981923501e-02 -3.438211537654162209e-02 9.993600326095640560e-04 6.406456935722691926e-01 -4.316921368682230531e-02 7.448161432078183319e-02 -8.435220613755224639e-02 -3.508518791002330356e-02 4.744568176147854754e-01 1.508557601039233441e-02
2.561555496992037190e-02 -3.429589340981931828e-02 -3.438211537654155964e-02 9.993600326095662244e-04 6.406456935722690815e-01 -4.316921368682241633e-02 7.448161432078229116e-02 -8.435220613755223251e-02 -3.508518791002362969e-02 4.744568176147854199e-01 1.508557601039234482e-02
2.561555496992037884e-02 -3.429589340981924889e-02 -3.438211537654162209e-02 9.993600326095683929e-04 6.406456935722693036e-01 -4.316921368682258286e-02 7.448161432078204136e-02 -8.435220613755207986e-02 -3.508518791002337295e-02 4.744568176147853644e-01 1.508557601039236563e-02
2.561555496992037884e-02 -3.429589340981928358e-02 -3.438211537654173311e-02 9.993600326095666581e-04 6.406456935722693036e-01 -4.316921368682245103e-02 7.448161432078209687e-02 -8.435220613755216312e-02 -3.508518791002337989e-02 4.744568176147854754e-01 1.508557601039236390e-02
2.561555496992036496e-02 -3.429589340981901990e-02 -3.438211537654128208e-02 9.993600326095597192e-04 6.406456935722693036e-01 -4.316921368682302002e-02 7.448161432078220789e-02 -8.435220613755212149e-02 -3.508518791002342846e-02 4.744568176147850869e-01 1.508557601039236910e-02
2.561555496992037190e-02 -3.429589340981926276e-02 -3.438211537654122657e-02 9.993600326095592856e-04 6.406456935722689705e-01 -4.316921368682295063e-02 7.448161432078226341e-02 -8.435220613755224639e-02 -3.508518791002335213e-02 4.744568176147854754e-01 1.508557601039236737e-02
2.561555496992037537e-02 -3.429589340981928358e-02 -3.438211537654143474e-02 9.993600326095623213e-04 6.406456935722693036e-01 -4.316921368682278409e-02 7.448161432078226341e-02 -8.435220613755217700e-02 -3.508518791002338683e-02 4.744568176147853644e-01 1.508557601039237431e-02
2.561555496992036843e-02 -3.429589340981906154e-02 -3.438211537654120575e-02 9.993600326095555993e-04 6.406456935722690815e-01 -4.316921368682324206e-02 7.448161432078255484e-02 -8.435220613755201047e-02 -3.508518791002340070e-02 4.744568176147848093e-01 1.508557601039238992e-02
2.561555496992035802e-02 -3.429589340981918644e-02 -3.438211537654139310e-02 9.993600326095575508e-04 6.406456935722693036e-01 -4.316921368682281185e-02 7.448161432078216626e-02 -8.435220613755217700e-02 -3.508518791002326193e-02 4.744568176147850869e-01 1.508557601039237951e-02
2.561555496992036149e-02 -3.429589340981919338e-02 -3.438211537654112249e-02 9.993600326095575508e-04 6.406456935722691926e-01 -4.316921368682318655e-02 7.448161432078248545e-02 -8.435220613755209373e-02 -3.508518791002355336e-02 4.744568176147851979e-01 1.508557601039238298e-02
2.561555496992035802e-02 -3.429589340981893664e-02 -3.438211537654108085e-02 9.993600326095590687e-04 6.406456935722695256e-01 -4.316921368682345717e-02 7.448161432078197197e-02 -8.435220613755195496e-02 -3.508518791002331744e-02 4.744568176147850869e-01 1.508557601039238125e-02
2.561555496992034414e-02 -3.429589340981911705e-02 -3.438211537654112943e-02 9.993600326095564666e-04 6.406456935722693036e-01 -4.316921368682323512e-02 7.448161432078168054e-02 -8.435220613755178842e-02 -3.508518791002324111e-02 4.744568176147851424e-01 1.508557601039239165e-02
2.561555496992035108e-02 -3.429589340981892970e-02 -3.438211537654090738e-02 9.993600326095534309e-04 6.406456935722694146e-01 -4.316921368682369309e-02 7.448161432078190258e-02 -8.435220613755183006e-02 -3.508518791002322029e-02 4.744568176147848093e-01 1.508557601039240727e-02
2.561555496992031986e-02 -3.429589340981873541e-02 -3.438211537654102534e-02 9.993600326095536477e-04 6.406456935722694146e-01 -4.316921368682375554e-02 7.448161432078186095e-02 -8.435220613755180230e-02 -3.508518791002319948e-02 4.744568176147850314e-01 1.508557601039241247e-02
2.561555496992033720e-02 -3.429589340981884643e-02 -3.438211537654109473e-02 9.993600326095527803e-04 6.406456935722697477e-01 -4.316921368682345717e-02 7.448161432078218014e-02 -8.435220613755206598e-02 -3.508518791002340764e-02 4.744568176147849203e-01 1.508557601039241074e-02
2.561555496992030945e-02 -3.429589340981874929e-02 -3.438211537654090044e-02 9.993600326095549487e-04 6.406456935722694146e-01 -4.316921368682383187e-02 7.448161432078206912e-02 -8.435220613755174679e-02 -3.508518791002328274e-02 4.744568176147848648e-01 1.508557601039238298e-02
2.561555496992035108e-02 -3.429589340981897133e-02 -3.438211537654103922e-02 9.993600326095586350e-04 6.406456935722695256e-01 -4.316921368682374166e-02 7.448161432078195809e-02 -8.435220613755171903e-02 -3.508518791002315090e-02 4.744568176147848648e-01 1.508557601039240033e-02
2.561555496992032332e-02 -3.429589340981899909e-02 -3.438211537654092820e-02 9.993600326095551656e-04 6.406456935722694146e-01 -4.316921368682373472e-02 7.448161432078186095e-02 -8.435220613755155250e-02 -3.508518791002307458e-02 4.744568176147847538e-01 1.508557601039240380e-02
2.561555496992031986e-02 -3.429589340981880480e-02 -3.438211537654064370e-02 9.993600326095516961e-04 6.406456935722693036e-01 -4.316921368682392207e-02 7.448161432078177768e-02 -8.435220613755185781e-02 -3.508518791002303294e-02 4.744568176147848648e-01 1.508557601039240900e-02
2.561555496992031986e-02 -3.429589340981886725e-02 -3.438211537654093514e-02 9.993600326095573340e-04 6.406456935722694146e-01 -4.316921368682386656e-02 7.448161432078183319e-02 -8.435220613755144148e-02 -3.508518791002315784e-02 4.744568176147846983e-01 1.508557601039240727e-02
2.561555496992030945e-02 -3.429589340981894358e-02 -3.438211537654081718e-02 9.993600326095555993e-04 6.406456935722694146e-01 -4.316921368682364452e-02 7.448161432078133359e-02 -8.435220613755155250e-02 -3.508518791002288723e-02 4.744568176147848648e-01 1.508557601039240033e-02
2.561555496992031986e-02 -3.429589340981899909e-02 -3.438211537654102534e-02 9.993600326095577677e-04 6.406456935722695256e-01 -4.316921368682362370e-02 7.448161432078302668e-02 -8.435220613755188557e-02 -3.508518791002371295e-02 4.744568176147844762e-01 1.508557601039238992e-02
2.561555496992031292e-02 -3.429589340981896439e-02 -3.438211537654079636e-02 9.993600326095566835e-04 6.406456935722695256e-01 -4.316921368682395677e-02 7.448161432078254096e-02 -8.435220613755170516e-02 -3.508518791002356030e-02 4.744568176147847538e-01 1.508557601039240727e-02
2.561555496992030598e-02 -3.429589340981883255e-02 -3.438211537654066452e-02 9.993600326095540814e-04 6.406456935722695256e-01 -4.316921368682430371e-02 7.448161432078316546e-02 -8.435220613755180230e-02 -3.508518791002374071e-02 4.744568176147843652e-01 1.508557601039239859e-02
2.561555496992029210e-02 -3.429589340981887419e-02 -3.438211537654077554e-02 9.993600326095542982e-04 6.406456935722693036e-01 -4.316921368682407473e-02 7.448161432078297117e-02 -8.435220613755166352e-02 -3.508518791002364356e-02 4.744568176147842542e-01 1.508557601039240206e-02
2.561555496992031639e-02 -3.429589340981896439e-02 -3.438211537654069228e-02 9.993600326095590687e-04 6.406456935722695256e-01 -4.316921368682435922e-02 7.448161432078266586e-02 -8.435220613755134433e-02 -3.508518791002351866e-02 4.744568176147843097e-01 1.508557601039239686e-02
2.561555496992030251e-02 -3.429589340981877010e-02 -3.438211537654045635e-02 9.993600326095538645e-04 6.406456935722697477e-01 -4.316921368682479637e-02 7.448161432078267974e-02 -8.435220613755155250e-02 -3.508518791002347009e-02 4.744568176147845873e-01 1.508557601039239512e-02
2.561555496992028863e-02 -3.429589340981872153e-02 -3.438211537654063676e-02 9.993600326095560329e-04 6.406456935722696366e-01 -4.316921368682460902e-02 7.448161432078312383e-02 -8.435220613755135821e-02 -3.508518791002372683e-02 4.744568176147841432e-01 1.508557601039241247e-02
2.561555496992029210e-02 -3.429589340981873541e-02 -3.438211537654057431e-02 9.993600326095555993e-04 6.406456935722694146e-01 -4.316921368682460902e-02 7.448161432078345690e-02 -8.435220613755152474e-02 -3.508518791002384479e-02 4.744568176147840877e-01 1.508557601039240553e-02
2.561555496992026434e-02 -3.429589340981872153e-02 -3.438211537654038003e-02 9.993600326095527803e-04 6.406456935722696366e-01 -4.316921368682475474e-02 7.448161432078290178e-02 -8.435220613755146923e-02 -3.508518791002363663e-02 4.744568176147842542e-01 1.508557601039240900e-02
2.561555496992028863e-02 -3.429589340981889500e-02 -3.438211537654061595e-02 9.993600326095549487e-04 6.406456935722697477e-01 -4.316921368682432453e-02 7.448161432078287403e-02 -8.435220613755146923e-02 -3.508518791002364356e-02 4.744568176147840877e-01 1.508557601039241768e-02
2.561555496992027475e-02 -3.429589340981865214e-02 -3.438211537654040778e-02 9.993600326095540814e-04 6.406456935722695256e-01 -4.316921368682480331e-02 7.448161432078277688e-02 -8.435220613755135821e-02 -3.508518791002349091e-02 4.744568176147842542e-01 1.508557601039240033e-02
2.561555496992028516e-02 -3.429589340981863826e-02 -3.438211537654044248e-02 9.993600326095532140e-04 6.406456935722697477e-01 -4.316921368682480331e-02 7.448161432078316546e-02 -8.435220613755159413e-02 -3.508518791002376846e-02 4.744568176147841432e-01 1.508557601039240380e-02
2.561555496992027475e-02 -3.429589340981875623e-02 -3.438211537654039390e-02 9.993600326095534309e-04 6.406456935722697477e-01 -4.316921368682487964e-02 7.448161432078277688e-02 -8.435220613755144148e-02 -3.508518791002354642e-02 4.744568176147842542e-01 1.508557601039240033e-02
2.561555496992027822e-02 -3.429589340981872847e-02 -3.438211537654007471e-02 9.993600326095519130e-04 6.406456935722696366e-01 -4.316921368682524046e-02 7.448161432078345690e-02 -8.435220613755153862e-02 -3.508518791002381010e-02 4.744568176147841432e-01 1.508557601039238819e-02
2.561555496992027822e-02 -3.429589340981862439e-02 -3.438211537654005390e-02 9.993600326095467088e-04 6.406456935722699697e-01 -4.316921368682516413e-02 7.448161432078324873e-02 -8.435220613755135821e-02 -3.508518791002404602e-02 4.744568176147838101e-01 1.508557601039241768e-02
2.561555496992024700e-02 -3.429589340981854112e-02 -3.438211537654017880e-02 9.993600326095475762e-04 6.406456935722697477e-01 -4.316921368682517801e-02 7.448161432078390098e-02 -8.435220613755155250e-02 -3.508518791002412235e-02 4.744568176147835326e-01 1.508557601039240900e-02
2.561555496992026087e-02 -3.429589340981858275e-02 -3.438211537653997757e-02 9.993600326095488772e-04 6.406456935722698587e-01 -4.316921368682551108e-02 7.448161432078348465e-02 -8.435220613755119168e-02 -3.508518791002384479e-02 4.744568176147836991e-01 1.508557601039243329e-02
2.561555496992026781e-02 -3.429589340981840928e-02 -3.438211537653970695e-02 9.993600326095438899e-04 6.406456935722699697e-01 -4.316921368682573312e-02 7.448161432078338751e-02 -8.435220613755145536e-02 -3.508518791002390030e-02 4.744568176147835881e-01 1.508557601039241768e-02
2.561555496992025047e-02 -3.429589340981852030e-02 -3.438211537653973471e-02 9.993600326095432394e-04 6.406456935722697477e-01 -4.316921368682562210e-02 7.448161432078359567e-02 -8.435220613755142760e-02 -3.508518791002400439e-02 4.744568176147835881e-01 1.508557601039242808e-02
2.561555496992024700e-02 -3.429589340981859663e-02 -3.438211537653985267e-02 9.993600326095495277e-04 6.406456935722697477e-01 -4.316921368682535148e-02 7.448161432078294342e-02 -8.435220613755131658e-02 -3.508518791002374765e-02 4.744568176147839211e-01 1.508557601039239859e-02
2.561555496992026087e-02 -3.429589340981854112e-02 -3.438211537654011635e-02 9.993600326095495277e-04 6.406456935722698587e-01 -4.316921368682551108e-02 7.448161432078403976e-02 -8.435220613755131658e-02 -3.508518791002408072e-02 4.744568176147835881e-01 1.508557601039239686e-02
2.561555496992027128e-02 -3.429589340981851336e-02 -3.438211537654001920e-02 9.993600326095495277e-04 6.406456935722698587e-01 -4.316921368682532373e-02 7.448161432078330424e-02 -8.435220613755128882e-02 -3.508518791002394888e-02 4.744568176147838101e-01 1.508557601039241421e-02
2.561555496992026781e-02 -3.429589340981864520e-02 -3.438211537653996369e-02 9.993600326095497446e-04 6.406456935722697477e-01 -4.316921368682548332e-02 7.448161432078327648e-02 -8.435220613755123331e-02 -3.508518791002389337e-02 4.744568176147838101e-01 1.508557601039239859e-02
2.561555496992028516e-02 -3.429589340981859663e-02 -3.438211537653966532e-02 9.993600326095486604e-04 6.406456935722699697e-01 -4.316921368682575394e-02 7.448161432078385935e-02 -8.435220613755138597e-02 -3.508518791002426113e-02 4.744568176147837546e-01 1.508557601039239512e-02
2.561555496992023312e-02 -3.429589340981833989e-02 -3.438211537653944327e-02 9.993600326095467088e-04 6.406456935722696366e-01 -4.316921368682587884e-02 7.448161432078258259e-02 -8.435220613755115004e-02 -3.508518791002356724e-02 4.744568176147838656e-01 1.508557601039240033e-02
2.561555496992023659e-02 -3.429589340981858969e-02 -3.438211537653982491e-02 9.993600326095469256e-04 6.406456935722699697e-01 -4.316921368682546251e-02 7.448161432078355404e-02 -8.435220613755141372e-02 -3.508518791002403214e-02 4.744568176147836436e-01 1.508557601039238298e-02
2.561555496992024006e-02 -3.429589340981848561e-02 -3.438211537653963062e-02 9.993600326095464920e-04 6.406456935722697477e-01 -4.316921368682580945e-02 7.448161432078324873e-02 -8.435220613755152474e-02 -3.508518791002385867e-02 4.744568176147839766e-01 1.508557601039238992e-02
2.561555496992024353e-02 -3.429589340981838153e-02 -3.438211537653960981e-02 9.993600326095447572e-04 6.406456935722697477e-01 -4.316921368682580945e-02 7.448161432078308219e-02 -8.435220613755153862e-02 -3.508518791002383092e-02 4.744568176147841987e-01 1.508557601039236910e-02
2.561555496992023659e-02 -3.429589340981865214e-02 -3.438211537653988736e-02 9.993600326095510456e-04 6.406456935722697477e-01 -4.316921368682571231e-02 7.448161432078424793e-02 -8.435220613755133046e-02 -3.508518791002426807e-02 4.744568176147835326e-01 1.508557601039238819e-02
2.561555496992025741e-02 -3.429589340981847867e-02 -3.438211537653951266e-02 9.993600326095410710e-04 6.406456935722698587e-01 -4.316921368682582333e-02 7.448161432078348465e-02 -8.435220613755167740e-02 -3.508518791002401827e-02 4.744568176147839211e-01 1.508557601039237951e-02
2.561555496992024353e-02 -3.429589340981841622e-02 -3.438211537653976246e-02 9.993600326095438899e-04 6.406456935722696366e-01 -4.316921368682554577e-02 7.448161432078384547e-02 -8.435220613755180230e-02 -3.508518791002421949e-02 4.744568176147838656e-01 1.508557601039238298e-02
2.561555496992022965e-02 -3.429589340981838153e-02 -3.438211537653956124e-02 9.993600326095410710e-04 6.406456935722698587e-01 -4.316921368682566373e-02 7.448161432078422017e-02 -8.435220613755195496e-02 -3.508518791002449705e-02 4.744568176147838656e-01 1.508557601039238298e-02
2.561555496992023659e-02 -3.429589340981846479e-02 -3.438211537653970001e-02 9.993600326095464920e-04 6.406456935722698587e-01 -4.316921368682555271e-02 7.448161432078323485e-02 -8.435220613755152474e-02 -3.508518791002398357e-02 4.744568176147839211e-01 1.508557601039237604e-02
2.561555496992022618e-02 -3.429589340981836071e-02 -3.438211537653988042e-02 9.993600326095458414e-04 6.406456935722695256e-01 -4.316921368682554577e-02 7.448161432078352628e-02 -8.435220613755183006e-02 -3.508518791002394194e-02 4.744568176147842542e-01 1.508557601039235870e-02
2.561555496992024700e-02 -3.429589340981824969e-02 -3.438211537653979022e-02 9.993600326095447572e-04 6.406456935722698587e-01 -4.316921368682580945e-02 7.448161432078402588e-02 -8.435220613755184393e-02 -3.508518791002420562e-02 4.744568176147838656e-01 1.508557601039237431e-02
2.561555496992022618e-02 -3.429589340981840234e-02 -3.438211537653976246e-02 9.993600326095475762e-04 6.406456935722696366e-01 -4.316921368682568455e-02 7.448161432078442834e-02 -8.435220613755170516e-02 -3.508518791002458725e-02 4.744568176147838656e-01 1.508557601039235002e-02
2.561555496992022965e-02 -3.429589340981847867e-02 -3.438211537653999839e-02 9.993600326095490941e-04 6.406456935722696366e-01 -4.316921368682530291e-02 7.448161432078444222e-02 -8.435220613755213537e-02 -3.508518791002451093e-02 4.744568176147842542e-01 1.508557601039235002e-02
2.561555496992019149e-02 -3.429589340981829132e-02 -3.438211537654005390e-02 9.993600326095506119e-04 6.406456935722696366e-01 -4.316921368682548332e-02 7.448161432078455324e-02 -8.435220613755203822e-02 -3.508518791002441378e-02 4.744568176147839211e-01 1.508557601039234135e-02
2.561555496992024700e-02 -3.429589340981826356e-02 -3.438211537654013716e-02 9.993600326095538645e-04 6.406456935722696366e-01 -4.316921368682563598e-02 7.448161432078428956e-02 -8.435220613755156638e-02 -3.508518791002444848e-02 4.744568176147839766e-01 1.508557601039235349e-02
2.561555496992022618e-02 -3.429589340981815254e-02 -3.438211537654006084e-02 9.993600326095503951e-04 6.406456935722699697e-01 -4.316921368682585108e-02 7.448161432078455324e-02 -8.435220613755185781e-02 -3.508518791002455950e-02 4.744568176147839211e-01 1.508557601039234482e-02
2.561555496992024700e-02 -3.429589340981829132e-02 -3.438211537654022737e-02 9.993600326095562498e-04 6.406456935722700807e-01 -4.316921368682555965e-02 7.448161432078413691e-02 -8.435220613755178842e-02 -3.508518791002439990e-02 4.744568176147841432e-01 1.508557601039234655e-02
2.561555496992024353e-02 -3.429589340981826356e-02 -3.438211537654017186e-02 9.993600326095525635e-04 6.406456935722698587e-01 -4.316921368682574006e-02 7.448161432078545530e-02 -8.435220613755203822e-02 -3.508518791002486481e-02 4.744568176147838656e-01 1.508557601039234655e-02
2.561555496992021230e-02 -3.429589340981838846e-02 -3.438211537653990124e-02 9.993600326095545151e-04 6.406456935722698587e-01 -4.316921368682574700e-02 7.448161432078505284e-02 -8.435220613755203822e-02 -3.508518791002470522e-02 4.744568176147838101e-01 1.508557601039235349e-02
2.561555496992025741e-02 -3.429589340981833989e-02 -3.438211537654026900e-02 9.993600326095575508e-04 6.406456935722700807e-01 -4.316921368682571231e-02 7.448161432078534427e-02 -8.435220613755184393e-02 -3.508518791002496195e-02 4.744568176147836436e-01 1.508557601039235176e-02
2.561555496992020536e-02 -3.429589340981825663e-02 -3.438211537654044248e-02 9.993600326095553824e-04 6.406456935722697477e-01 -4.316921368682542781e-02 7.448161432078471977e-02 -8.435220613755206598e-02 -3.508518791002452480e-02 4.744568176147841987e-01 1.508557601039232400e-02
2.561555496992022618e-02 -3.429589340981820805e-02 -3.438211537654010247e-02 9.993600326095538645e-04 6.406456935722698587e-01 -4.316921368682592047e-02 7.448161432078527489e-02 -8.435220613755205210e-02 -3.508518791002469828e-02 4.744568176147837546e-01 1.508557601039233961e-02
2.561555496992022271e-02 -3.429589340981811785e-02 -3.438211537654006084e-02 9.993600326095569003e-04 6.406456935722698587e-01 -4.316921368682605231e-02 7.448161432078526101e-02 -8.435220613755195496e-02 -3.508518791002475379e-02 4.744568176147837546e-01 1.508557601039234135e-02
2.561555496992021577e-02 -3.429589340981815948e-02 -3.438211537654020655e-02 9.993600326095538645e-04 6.406456935722700807e-01 -4.316921368682587884e-02 7.448161432078535815e-02 -8.435220613755209373e-02 -3.508518791002489257e-02 4.744568176147838101e-01 1.508557601039233267e-02
2.561555496992021230e-02 -3.429589340981814560e-02 -3.438211537654008165e-02 9.993600326095521298e-04 6.406456935722698587e-01 -4.316921368682590660e-02 7.448161432078496957e-02 -8.435220613755216312e-02 -3.508518791002463583e-02 4.744568176147839766e-01 1.508557601039231533e-02
2.561555496992020883e-02 -3.429589340981815254e-02 -3.438211537654024819e-02 9.993600326095562498e-04 6.406456935722698587e-01 -4.316921368682568455e-02 7.448161432078501121e-02 -8.435220613755209373e-02 -3.508518791002475379e-02 4.744568176147839211e-01 1.508557601039231359e-02
2.561555496992020883e-02 -3.429589340981796519e-02 -3.438211537654042860e-02 9.993600326095595024e-04 6.406456935722697477e-01 -4.316921368682592047e-02 7.448161432078571897e-02 -8.435220613755195496e-02 -3.508518791002498277e-02 4.744568176147836991e-01 1.508557601039230492e-02
2.561555496992021924e-02 -3.429589340981793050e-02 -3.438211537654043554e-02 9.993600326095586350e-04 6.406456935722697477e-01 -4.316921368682585108e-02 7.448161432078602429e-02 -8.435220613755224639e-02 -3.508518791002509379e-02 4.744568176147836436e-01 1.508557601039229451e-02
2.561555496992021577e-02 -3.429589340981806234e-02 -3.438211537654038696e-02 9.993600326095590687e-04 6.406456935722699697e-01 -4.316921368682574700e-02 7.448161432078531652e-02 -8.435220613755224639e-02 -3.508518791002483705e-02 4.744568176147840877e-01 1.508557601039230492e-02
2.561555496992021230e-02 -3.429589340981815254e-02 -3.438211537654058819e-02 9.993600326095582013e-04 6.406456935722699697e-01 -4.316921368682551802e-02 7.448161432078509447e-02 -8.435220613755238517e-02 -3.508518791002461501e-02 4.744568176147842542e-01 1.508557601039230665e-02
2.561555496992021577e-02 -3.429589340981803458e-02 -3.438211537654047023e-02 9.993600326095592856e-04 6.406456935722699697e-01 -4.316921368682592047e-02 7.448161432078567734e-02 -8.435220613755216312e-02 -3.508518791002488563e-02 4.744568176147835881e-01 1.508557601039229798e-02
2.561555496992021230e-02 -3.429589340981796519e-02 -3.438211537654078248e-02 9.993600326095616708e-04 6.406456935722698587e-01 -4.316921368682574006e-02 7.448161432078666266e-02 -8.435220613755224639e-02 -3.508518791002538523e-02 4.744568176147833660e-01 1.508557601039229625e-02
2.561555496992021577e-02 -3.429589340981799989e-02 -3.438211537654071309e-02 9.993600326095605866e-04 6.406456935722699697e-01 -4.316921368682569843e-02 7.448161432078635735e-02 -8.435220613755238517e-02 -3.508518791002524645e-02 4.744568176147836991e-01 1.508557601039230145e-02
2.561555496992021577e-02 -3.429589340981797213e-02 -3.438211537654094208e-02 9.993600326095642729e-04 6.406456935722698587e-01 -4.316921368682569843e-02 7.448161432078678756e-02 -8.435220613755231578e-02 -3.508518791002536441e-02 4.744568176147835326e-01 1.508557601039228410e-02
2.561555496992023312e-02 -3.429589340981821499e-02 -3.438211537654140698e-02 9.993600326095701276e-04 6.406456935722698587e-01 -4.316921368682508781e-02 7.448161432078646838e-02 -8.435220613755226027e-02 -3.508518791002515624e-02 4.744568176147835881e-01 1.508557601039227716e-02
2.561555496992020536e-02 -3.429589340981806928e-02 -3.438211537654133065e-02 9.993600326095683929e-04 6.406456935722697477e-01 -4.316921368682539312e-02 7.448161432078698185e-02 -8.435220613755235741e-02 -3.508518791002536441e-02 4.744568176147836436e-01 1.508557601039226502e-02
2.561555496992020189e-02 -3.429589340981777784e-02 -3.438211537654098371e-02 9.993600326095677423e-04 6.406456935722698587e-01 -4.316921368682589966e-02 7.448161432078669042e-02 -8.435220613755219088e-02 -3.508518791002526033e-02 4.744568176147833660e-01 1.508557601039227543e-02
2.561555496992020536e-02 -3.429589340981789580e-02 -3.438211537654106004e-02 9.993600326095662244e-04 6.406456935722699697e-01 -4.316921368682576088e-02 7.448161432078638511e-02 -8.435220613755210761e-02 -3.508518791002517012e-02 4.744568176147836436e-01 1.508557601039226849e-02
2.561555496992019496e-02 -3.429589340981777784e-02 -3.438211537654063676e-02 9.993600326095614540e-04 6.406456935722699697e-01 -4.316921368682608701e-02 7.448161432078628796e-02 -8.435220613755216312e-02 -3.508518791002507298e-02 4.744568176147834770e-01 1.508557601039228237e-02
2.561555496992020883e-02 -3.429589340981768764e-02 -3.438211537654077554e-02 9.993600326095631887e-04 6.406456935722698587e-01 -4.316921368682605231e-02 7.448161432078612143e-02 -8.435220613755210761e-02 -3.508518791002503828e-02 4.744568176147838656e-01 1.508557601039227716e-02
2.561555496992019842e-02 -3.429589340981785417e-02 -3.438211537654092126e-02 9.993600326095644897e-04 6.406456935722699697e-01 -4.316921368682581639e-02 7.448161432078609367e-02 -8.435220613755196883e-02 -3.508518791002509379e-02 4.744568176147835326e-01 1.508557601039228584e-02
2.561555496992018802e-02 -3.429589340981775702e-02 -3.438211537654103922e-02 9.993600326095683929e-04 6.406456935722698587e-01 -4.316921368682585108e-02 7.448161432078619082e-02 -8.435220613755194108e-02 -3.508518791002513543e-02 4.744568176147835881e-01 1.508557601039226502e-02
2.561555496992019842e-02 -3.429589340981772927e-02 -3.438211537654069921e-02 9.993600326095668750e-04 6.406456935722695256e-01 -4.316921368682614946e-02 7.448161432078626021e-02 -8.435220613755192720e-02 -3.508518791002505910e-02 4.744568176147835326e-01 1.508557601039225982e-02
2.561555496992019496e-02 -3.429589340981780560e-02 -3.438211537654137229e-02 9.993600326095716455e-04 6.406456935722697477e-01 -4.316921368682561516e-02 7.448161432078635735e-02 -8.435220613755195496e-02 -3.508518791002512849e-02 4.744568176147836991e-01 1.508557601039226155e-02
2.561555496992019496e-02 -3.429589340981763212e-02 -3.438211537654083799e-02 9.993600326095644897e-04 6.406456935722697477e-01 -4.316921368682592047e-02 7.448161432078527489e-02 -8.435220613755198271e-02 -3.508518791002466358e-02 4.744568176147839211e-01 1.508557601039225288e-02
2.561555496992018108e-02 -3.429589340981761131e-02 -3.438211537654077554e-02 9.993600326095649234e-04 6.406456935722698587e-01 -4.316921368682613558e-02 7.448161432078588551e-02 -8.435220613755178842e-02 -3.508518791002494114e-02 4.744568176147834770e-01 1.508557601039225982e-02
2.561555496992017761e-02 -3.429589340981774315e-02 -3.438211537654075473e-02 9.993600326095657908e-04 6.406456935722697477e-01 -4.316921368682594129e-02 7.448161432078534427e-02 -8.435220613755194108e-02 -3.508518791002473297e-02 4.744568176147840877e-01 1.508557601039225635e-02
2.561555496992018108e-02 -3.429589340981768070e-02 -3.438211537654073391e-02 9.993600326095668750e-04 6.406456935722695256e-01 -4.316921368682614252e-02 7.448161432078552469e-02 -8.435220613755188557e-02 -3.508518791002471215e-02 4.744568176147839766e-01 1.508557601039225982e-02
2.561555496992015332e-02 -3.429589340981775009e-02 -3.438211537654042166e-02 9.993600326095590687e-04 6.406456935722697477e-01 -4.316921368682603150e-02 7.448161432078483080e-02 -8.435220613755183006e-02 -3.508518791002446235e-02 4.744568176147839766e-01 1.508557601039225982e-02
2.561555496992017761e-02 -3.429589340981779172e-02 -3.438211537654099759e-02 9.993600326095692602e-04 6.406456935722698587e-01 -4.316921368682576782e-02 7.448161432078574673e-02 -8.435220613755214925e-02 -3.508518791002481624e-02 4.744568176147840877e-01 1.508557601039224247e-02
2.561555496992018108e-02 -3.429589340981781254e-02 -3.438211537654082411e-02 9.993600326095616708e-04 6.406456935722695256e-01 -4.316921368682554577e-02 7.448161432078474753e-02 -8.435220613755216312e-02 -3.508518791002436521e-02 4.744568176147845318e-01 1.508557601039224594e-02
2.561555496992016026e-02 -3.429589340981779866e-02 -3.438211537654099759e-02 9.993600326095662244e-04 6.406456935722695256e-01 -4.316921368682560128e-02 7.448161432078539979e-02 -8.435220613755216312e-02 -3.508518791002462889e-02 4.744568176147843097e-01 1.508557601039224247e-02
2.561555496992021230e-02 -3.429589340981791662e-02 -3.438211537654110167e-02 9.993600326095677423e-04 6.406456935722696366e-01 -4.316921368682547638e-02 7.448161432078545530e-02 -8.435220613755231578e-02 -3.508518791002462195e-02 4.744568176147846983e-01 1.508557601039223033e-02
2.561555496992014985e-02 -3.429589340981754886e-02 -3.438211537654065064e-02 9.993600326095623213e-04 6.406456935722697477e-01 -4.316921368682614252e-02 7.448161432078591326e-02 -8.435220613755235741e-02 -3.508518791002492726e-02 4.744568176147840877e-01 1.508557601039224073e-02
2.561555496992016720e-02 -3.429589340981750722e-02 -3.438211537654083105e-02 9.993600326095616708e-04 6.406456935722696366e-01 -4.316921368682605925e-02 7.448161432078581612e-02 -8.435220613755221863e-02 -3.508518791002480930e-02 4.744568176147840877e-01 1.508557601039223206e-02
2.561555496992015679e-02 -3.429589340981753498e-02 -3.438211537654076860e-02 9.993600326095616708e-04 6.406456935722695256e-01 -4.316921368682586496e-02 7.448161432078553856e-02 -8.435220613755235741e-02 -3.508518791002477460e-02 4.744568176147843097e-01 1.508557601039222512e-02
2.561555496992017414e-02 -3.429589340981771539e-02 -3.438211537654112249e-02 9.993600326095681760e-04 6.406456935722695256e-01 -4.316921368682558047e-02 7.448161432078552469e-02 -8.435220613755234353e-02 -3.508518791002471909e-02 4.744568176147845318e-01 1.508557601039222686e-02
2.561555496992017761e-02 -3.429589340981761825e-02 -3.438211537654113636e-02 9.993600326095690434e-04 6.406456935722695256e-01 -4.316921368682566373e-02 7.448161432078551081e-02 -8.435220613755227415e-02 -3.508518791002471215e-02 4.744568176147845318e-01 1.508557601039221818e-02
2.561555496992017067e-02 -3.429589340981754886e-02 -3.438211537654145555e-02 9.993600326095740307e-04 6.406456935722694146e-01 -4.316921368682554577e-02 7.448161432078605204e-02 -8.435220613755242680e-02 -3.508518791002494114e-02 4.744568176147845873e-01 1.508557601039219910e-02
2.561555496992014985e-02 -3.429589340981751416e-02 -3.438211537654121269e-02 9.993600326095694771e-04 6.406456935722694146e-01 -4.316921368682581639e-02 7.448161432078624633e-02 -8.435220613755227415e-02 -3.508518791002503134e-02 4.744568176147841432e-01 1.508557601039219910e-02
2.561555496992015679e-02 -3.429589340981745171e-02 -3.438211537654085187e-02 9.993600326095625382e-04 6.406456935722696366e-01 -4.316921368682587884e-02 7.448161432078598265e-02 -8.435220613755270436e-02 -3.508518791002489950e-02 4.744568176147844762e-01 1.508557601039220777e-02
2.561555496992013944e-02 -3.429589340981749335e-02 -3.438211537654093514e-02 9.993600326095703444e-04 6.406456935722693036e-01 -4.316921368682590660e-02 7.448161432078563571e-02 -8.435220613755227415e-02 -3.508518791002474685e-02 4.744568176147845318e-01 1.508557601039219910e-02
2.561555496992015679e-02 -3.429589340981756967e-02 -3.438211537654112249e-02 9.993600326095714286e-04 6.406456935722695256e-01 -4.316921368682569843e-02 7.448161432078598265e-02 -8.435220613755241292e-02 -3.508518791002484399e-02 4.744568176147844207e-01 1.508557601039218175e-02
2.561555496992013251e-02 -3.429589340981767376e-02 -3.438211537654119188e-02 9.993600326095699107e-04 6.406456935722693036e-01 -4.316921368682549026e-02 7.448161432078571897e-02 -8.435220613755251007e-02 -3.508518791002473297e-02 4.744568176147846428e-01 1.508557601039219043e-02
2.561555496992014291e-02 -3.429589340981762519e-02 -3.438211537654070615e-02 9.993600326095623213e-04 6.406456935722694146e-01 -4.316921368682570537e-02 7.448161432078462263e-02 -8.435220613755248231e-02 -3.508518791002435827e-02 4.744568176147850869e-01 1.508557601039218869e-02
2.561555496992016720e-02 -3.429589340981757661e-02 -3.438211537654100453e-02 9.993600326095705613e-04 6.406456935722693036e-01 -4.316921368682574006e-02 7.448161432078552469e-02 -8.435220613755251007e-02 -3.508518791002483012e-02 4.744568176147849758e-01 1.508557601039217655e-02
2.561555496992014638e-02 -3.429589340981757661e-02 -3.438211537654095595e-02 9.993600326095677423e-04 6.406456935722691926e-01 -4.316921368682572618e-02 7.448161432078588551e-02 -8.435220613755280150e-02 -3.508518791002478848e-02 4.744568176147847538e-01 1.508557601039217134e-02
2.561555496992013944e-02 -3.429589340981744477e-02 -3.438211537654087269e-02 9.993600326095705613e-04 6.406456935722693036e-01 -4.316921368682588578e-02 7.448161432078539979e-02 -8.435220613755263497e-02 -3.508518791002462889e-02 4.744568176147849758e-01 1.508557601039214532e-02
2.561555496992012904e-02 -3.429589340981736845e-02 -3.438211537654114330e-02 9.993600326095688265e-04 6.406456935722693036e-01 -4.316921368682562210e-02 7.448161432078538591e-02 -8.435220613755274599e-02 -3.508518791002460807e-02 4.744568176147849758e-01 1.508557601039213839e-02
2.561555496992012210e-02 -3.429589340981747253e-02 -3.438211537654132371e-02 9.993600326095679592e-04 6.406456935722693036e-01 -4.316921368682533067e-02 7.448161432078521937e-02 -8.435220613755262109e-02 -3.508518791002449705e-02 4.744568176147848648e-01 1.508557601039214879e-02
2.561555496992013944e-02 -3.429589340981745865e-02 -3.438211537654104616e-02 9.993600326095690434e-04 6.406456935722693036e-01 -4.316921368682555271e-02 7.448161432078563571e-02 -8.435220613755299579e-02 -3.508518791002480930e-02 4.744568176147850314e-01 1.508557601039213839e-02
2.561555496992012557e-02 -3.429589340981750029e-02 -3.438211537654127514e-02 9.993600326095681760e-04 6.406456935722693036e-01 -4.316921368682534454e-02 7.448161432078564959e-02 -8.435220613755310681e-02 -3.508518791002461501e-02 4.744568176147851979e-01 1.508557601039213492e-02
2.561555496992016026e-02 -3.429589340981745171e-02 -3.438211537654136535e-02 9.993600326095714286e-04 6.406456935722693036e-01 -4.316921368682574006e-02 7.448161432078696798e-02 -8.435220613755296803e-02 -3.508518791002521175e-02 4.744568176147846428e-01 1.508557601039213492e-02
2.561555496992012904e-02 -3.429589340981727824e-02 -3.438211537654138616e-02 9.993600326095703444e-04 6.406456935722691926e-01 -4.316921368682561516e-02 7.448161432078594102e-02 -8.435220613755277375e-02 -3.508518791002480930e-02 4.744568176147848648e-01 1.508557601039214185e-02
2.561555496992014985e-02 -3.429589340981732681e-02 -3.438211537654147637e-02 9.993600326095688265e-04 6.406456935722691926e-01 -4.316921368682537924e-02 7.448161432078634347e-02 -8.435220613755312069e-02 -3.508518791002504522e-02 4.744568176147849758e-01 1.508557601039214359e-02
2.561555496992012210e-02 -3.429589340981734763e-02 -3.438211537654126126e-02 9.993600326095692602e-04 6.406456935722693036e-01 -4.316921368682544863e-02 7.448161432078616306e-02 -8.435220613755324559e-02 -3.508518791002496889e-02 4.744568176147851424e-01 1.508557601039212624e-02
2.561555496992012210e-02 -3.429589340981739620e-02 -3.438211537654129596e-02 9.993600326095727297e-04 6.406456935722689705e-01 -4.316921368682530985e-02 7.448161432078605204e-02 -8.435220613755313457e-02 -3.508518791002494114e-02 4.744568176147850869e-01 1.508557601039212277e-02
2.561555496992012557e-02 -3.429589340981737539e-02 -3.438211537654125433e-02 9.993600326095686097e-04 6.406456935722691926e-01 -4.316921368682554577e-02 7.448161432078626021e-02 -8.435220613755314845e-02 -3.508518791002511461e-02 4.744568176147850869e-01 1.508557601039211410e-02
2.561555496992012210e-02 -3.429589340981729906e-02 -3.438211537654126126e-02 9.993600326095729465e-04 6.406456935722690815e-01 -4.316921368682560822e-02 7.448161432078638511e-02 -8.435220613755296803e-02 -3.508518791002505216e-02 4.744568176147849758e-01 1.508557601039210716e-02
2.561555496992012557e-02 -3.429589340981722273e-02 -3.438211537654149719e-02 9.993600326095714286e-04 6.406456935722689705e-01 -4.316921368682542087e-02 7.448161432078578836e-02 -8.435220613755310681e-02 -3.508518791002480930e-02 4.744568176147854199e-01 1.508557601039210889e-02
2.561555496992009087e-02 -3.429589340981711865e-02 -3.438211537654103228e-02 9.993600326095692602e-04 6.406456935722691926e-01 -4.316921368682591353e-02 7.448161432078596877e-02 -8.435220613755307906e-02 -3.508518791002476767e-02 4.744568176147850869e-01 1.508557601039210543e-02
2.561555496992012904e-02 -3.429589340981717416e-02 -3.438211537654101840e-02 9.993600326095642729e-04 6.406456935722694146e-01 -4.316921368682579557e-02 7.448161432078574673e-02 -8.435220613755312069e-02 -3.508518791002475379e-02 4.744568176147851424e-01 1.508557601039211757e-02
2.561555496992012557e-02 -3.429589340981734069e-02 -3.438211537654179556e-02 9.993600326095777170e-04 6.406456935722691926e-01 -4.316921368682506005e-02 7.448161432078589939e-02 -8.435220613755296803e-02 -3.508518791002485787e-02 4.744568176147851979e-01 1.508557601039210369e-02
2.561555496992012557e-02 -3.429589340981719497e-02 -3.438211537654158045e-02 9.993600326095701276e-04 6.406456935722688595e-01 -4.316921368682534454e-02 7.448161432078605204e-02 -8.435220613755332886e-02 -3.508518791002475379e-02 4.744568176147855310e-01 1.508557601039210022e-02
2.561555496992012904e-02 -3.429589340981724355e-02 -3.438211537654141392e-02 9.993600326095690434e-04 6.406456935722689705e-01 -4.316921368682537230e-02 7.448161432078580224e-02 -8.435220613755309294e-02 -3.508518791002478848e-02 4.744568176147853089e-01 1.508557601039210716e-02
2.561555496992011169e-02 -3.429589340981740314e-02 -3.438211537654190658e-02 9.993600326095768496e-04 6.406456935722689705e-01 -4.316921368682504617e-02 7.448161432078695410e-02 -8.435220613755325947e-02 -3.508518791002518400e-02 4.744568176147852534e-01 1.508557601039208981e-02
2.561555496992013944e-02 -3.429589340981737539e-02 -3.438211537654178168e-02 9.993600326095766328e-04 6.406456935722687485e-01 -4.316921368682492821e-02 7.448161432078562183e-02 -8.435220613755306518e-02 -3.508518791002466358e-02 4.744568176147855865e-01 1.508557601039208461e-02
2.561555496992011863e-02 -3.429589340981716028e-02 -3.438211537654178168e-02 9.993600326095735970e-04 6.406456935722690815e-01 -4.316921368682529597e-02 7.448161432078674593e-02 -8.435220613755323171e-02 -3.508518791002510767e-02 4.744568176147851424e-01 1.508557601039208981e-02
2.561555496992008740e-02 -3.429589340981723661e-02 -3.438211537654189270e-02 9.993600326095731633e-04 6.406456935722688595e-01 -4.316921368682482413e-02 7.448161432078621857e-02 -8.435220613755349539e-02 -3.508518791002491338e-02 4.744568176147853089e-01 1.508557601039208287e-02
2.561555496992012904e-02 -3.429589340981725049e-02 -3.438211537654177474e-02 9.993600326095746812e-04 6.406456935722687485e-01 -4.316921368682510862e-02 7.448161432078628796e-02 -8.435220613755341212e-02 -3.508518791002490644e-02 4.744568176147857530e-01 1.508557601039206553e-02
2.561555496992013944e-02 -3.429589340981711865e-02 -3.438211537654178168e-02 9.993600326095727297e-04 6.406456935722689705e-01 -4.316921368682520577e-02 7.448161432078613531e-02 -8.435220613755320396e-02 -3.508518791002492032e-02 4.744568176147853644e-01 1.508557601039208981e-02
2.561555496992009434e-02 -3.429589340981717416e-02 -3.438211537654176780e-02 9.993600326095729465e-04 6.406456935722688595e-01 -4.316921368682497678e-02 7.448161432078649613e-02 -8.435220613755360641e-02 -3.508518791002489257e-02 4.744568176147853089e-01 1.508557601039207073e-02
2.561555496992010822e-02 -3.429589340981728518e-02 -3.438211537654187883e-02 9.993600326095742475e-04 6.406456935722689705e-01 -4.316921368682482413e-02 7.448161432078591326e-02 -8.435220613755348151e-02 -3.508518791002473297e-02 4.744568176147852534e-01 1.508557601039207767e-02
2.561555496992011516e-02 -3.429589340981716028e-02 -3.438211537654193434e-02 9.993600326095740307e-04 6.406456935722690815e-01 -4.316921368682504617e-02 7.448161432078614919e-02 -8.435220613755330110e-02 -3.508518791002483012e-02 4.744568176147851979e-01 1.508557601039207940e-02
2.561555496992009781e-02 -3.429589340981718804e-02 -3.438211537654212169e-02 9.993600326095755486e-04 6.406456935722690815e-01 -4.316921368682474780e-02 7.448161432078595490e-02 -8.435220613755348151e-02 -3.508518791002471215e-02 4.744568176147854199e-01 1.508557601039206900e-02
2.561555496992008740e-02 -3.429589340981730600e-02 -3.438211537654248251e-02 9.993600326095831380e-04 6.406456935722686374e-01 -4.316921368682429677e-02 7.448161432078663491e-02 -8.435220613755367580e-02 -3.508518791002503134e-02 4.744568176147856420e-01 1.508557601039205165e-02
2.561555496992010822e-02 -3.429589340981720191e-02 -3.438211537654221189e-02 9.993600326095796686e-04 6.406456935722688595e-01 -4.316921368682471311e-02 7.448161432078627409e-02 -8.435220613755337049e-02 -3.508518791002483705e-02 4.744568176147855310e-01 1.508557601039205685e-02
2.561555496992009434e-02 -3.429589340981736151e-02 -3.438211537654253802e-02 9.993600326095859569e-04 6.406456935722687485e-01 -4.316921368682432453e-02 7.448161432078620470e-02 -8.435220613755348151e-02 -3.508518791002480236e-02 4.744568176147858640e-01 1.508557601039205685e-02
2.561555496992012210e-02 -3.429589340981730600e-02 -3.438211537654223271e-02 9.993600326095770665e-04 6.406456935722688595e-01 -4.316921368682456739e-02 7.448161432078653776e-02 -8.435220613755380070e-02 -3.508518791002489950e-02 4.744568176147856420e-01 1.508557601039206032e-02
2.561555496992009434e-02 -3.429589340981745865e-02 -3.438211537654231598e-02 9.993600326095844390e-04 6.406456935722686374e-01 -4.316921368682408860e-02 7.448161432078533040e-02 -8.435220613755348151e-02 -3.508518791002437909e-02 4.744568176147861416e-01 1.508557601039205338e-02
2.561555496992012210e-02 -3.429589340981736845e-02 -3.438211537654263517e-02 9.993600326095835717e-04 6.406456935722689705e-01 -4.316921368682401228e-02 7.448161432078624633e-02 -8.435220613755374519e-02 -3.508518791002484399e-02 4.744568176147856975e-01 1.508557601039206900e-02
2.561555496992008046e-02 -3.429589340981735457e-02 -3.438211537654264904e-02 9.993600326095831380e-04 6.406456935722688595e-01 -4.316921368682388738e-02 7.448161432078619082e-02 -8.435220613755395336e-02 -3.508518791002474685e-02 4.744568176147857530e-01 1.508557601039203257e-02
2.561555496992006312e-02 -3.429589340981720191e-02 -3.438211537654255884e-02 9.993600326095824875e-04 6.406456935722686374e-01 -4.316921368682405391e-02 7.448161432078596877e-02 -8.435220613755367580e-02 -3.508518791002478848e-02 4.744568176147858640e-01 1.508557601039204991e-02
2.561555496992009434e-02 -3.429589340981733375e-02 -3.438211537654260047e-02 9.993600326095870411e-04 6.406456935722686374e-01 -4.316921368682419269e-02 7.448161432078642674e-02 -8.435220613755366192e-02 -3.508518791002492032e-02 4.744568176147856975e-01 1.508557601039204818e-02
2.561555496992009434e-02 -3.429589340981730600e-02 -3.438211537654273231e-02 9.993600326095872580e-04 6.406456935722687485e-01 -4.316921368682401228e-02 7.448161432078599653e-02 -8.435220613755363417e-02 -3.508518791002469828e-02 4.744568176147859195e-01 1.508557601039205338e-02
2.561555496992008740e-02 -3.429589340981738926e-02 -3.438211537654262823e-02 9.993600326095840054e-04 6.406456935722687485e-01 -4.316921368682382493e-02 7.448161432078626021e-02 -8.435220613755403662e-02 -3.508518791002477460e-02 4.744568176147859750e-01 1.508557601039205338e-02
2.561555496992011863e-02 -3.429589340981736151e-02 -3.438211537654284333e-02 9.993600326095887759e-04 6.406456935722688595e-01 -4.316921368682395677e-02 7.448161432078669042e-02 -8.435220613755382846e-02 -3.508518791002501053e-02 4.744568176147855310e-01 1.508557601039204991e-02
2.561555496992009434e-02 -3.429589340981753498e-02 -3.438211537654294742e-02 9.993600326095907274e-04 6.406456935722687485e-01 -4.316921368682356125e-02 7.448161432078644062e-02 -8.435220613755393948e-02 -3.508518791002487869e-02 4.744568176147858640e-01 1.508557601039203257e-02
2.561555496992009434e-02 -3.429589340981741702e-02 -3.438211537654315558e-02 9.993600326095892095e-04 6.406456935722685264e-01 -4.316921368682336696e-02 7.448161432078673205e-02 -8.435220613755417540e-02 -3.508518791002497583e-02 4.744568176147861971e-01 1.508557601039202389e-02
2.561555496992008393e-02 -3.429589340981761131e-02 -3.438211537654317640e-02 9.993600326095905106e-04 6.406456935722685264e-01 -4.316921368682325594e-02 7.448161432078673205e-02 -8.435220613755418928e-02 -3.508518791002503828e-02 4.744568176147861971e-01 1.508557601039201349e-02
2.561555496992009434e-02 -3.429589340981763906e-02 -3.438211537654311395e-02 9.993600326095894264e-04 6.406456935722686374e-01 -4.316921368682330451e-02 7.448161432078689859e-02 -8.435220613755423091e-02 -3.508518791002506604e-02 4.744568176147860861e-01 1.508557601039202216e-02
2.561555496992010128e-02 -3.429589340981768070e-02 -3.438211537654333599e-02 9.993600326095911611e-04 6.406456935722687485e-01 -4.316921368682294369e-02 7.448161432078681532e-02 -8.435220613755420316e-02 -3.508518791002512849e-02 4.744568176147858085e-01 1.508557601039202563e-02
2.561555496992009781e-02 -3.429589340981769457e-02 -3.438211537654350947e-02 9.993600326095918116e-04 6.406456935722687485e-01 -4.316921368682279103e-02 7.448161432078694022e-02 -8.435220613755455010e-02 -3.508518791002501053e-02 4.744568176147862526e-01 1.508557601039202389e-02
2.561555496992010822e-02 -3.429589340981759049e-02 -3.438211537654326660e-02 9.993600326095879085e-04 6.406456935722689705e-01 -4.316921368682297838e-02 7.448161432078662103e-02 -8.435220613755439745e-02 -3.508518791002496195e-02 4.744568176147859750e-01 1.508557601039201869e-02
2.561555496992008046e-02 -3.429589340981765988e-02 -3.438211537654325273e-02 9.993600326095876916e-04 6.406456935722687485e-01 -4.316921368682287430e-02 7.448161432078655164e-02 -8.435220613755448071e-02 -3.508518791002495502e-02 4.744568176147860306e-01 1.508557601039201002e-02
2.561555496992010128e-02 -3.429589340981760437e-02 -3.438211537654351641e-02 9.993600326095939800e-04 6.406456935722688595e-01 -4.316921368682299226e-02 7.448161432078795330e-02 -8.435220613755471664e-02 -3.508518791002562809e-02 4.744568176147860861e-01 1.508557601039200134e-02
2.561555496992009434e-02 -3.429589340981780560e-02 -3.438211537654358579e-02 9.993600326095950642e-04 6.406456935722689705e-01 -4.316921368682261062e-02 7.448161432078681532e-02 -8.435220613755460561e-02 -3.508518791002498971e-02 4.744568176147861971e-01 1.508557601039198746e-02
2.561555496992009434e-02 -3.429589340981770845e-02 -3.438211537654324579e-02 9.993600326095879085e-04 6.406456935722687485e-01 -4.316921368682283267e-02 7.448161432078641286e-02 -8.435220613755464725e-02 -3.508518791002478848e-02 4.744568176147863636e-01 1.508557601039199440e-02
2.561555496992010475e-02 -3.429589340981767376e-02 -3.438211537654368988e-02 9.993600326095924621e-04 6.406456935722690815e-01 -4.316921368682250654e-02 7.448161432078703736e-02 -8.435220613755478603e-02 -3.508518791002527420e-02 4.744568176147861416e-01 1.508557601039200308e-02
2.561555496992011169e-02 -3.429589340981781947e-02 -3.438211537654360661e-02 9.993600326095911611e-04 6.406456935722689705e-01 -4.316921368682243021e-02 7.448161432078709288e-02 -8.435220613755516073e-02 -3.508518791002516318e-02 4.744568176147864191e-01 1.508557601039197359e-02
2.561555496992010128e-02 -3.429589340981775009e-02 -3.438211537654396743e-02 9.993600326095939800e-04 6.406456935722690815e-01 -4.316921368682224980e-02 7.448161432078746758e-02 -8.435220613755514685e-02 -3.508518791002532278e-02 4.744568176147861971e-01 1.508557601039197532e-02
2.561555496992009781e-02 -3.429589340981766682e-02 -3.438211537654365518e-02 9.993600326095885590e-04 6.406456935722687485e-01 -4.316921368682234694e-02 7.448161432078662103e-02 -8.435220613755485541e-02 -3.508518791002498277e-02 4.744568176147864191e-01 1.508557601039198920e-02
2.561555496992009781e-02 -3.429589340981772927e-02 -3.438211537654371763e-02 9.993600326095911611e-04 6.406456935722687485e-01 -4.316921368682238858e-02 7.448161432078673205e-02 -8.435220613755481378e-02 -3.508518791002501053e-02 4.744568176147863081e-01 1.508557601039197185e-02
2.561555496992008393e-02 -3.429589340981748641e-02 -3.438211537654359273e-02 9.993600326095879085e-04 6.406456935722686374e-01 -4.316921368682240939e-02 7.448161432078638511e-02 -8.435220613755503583e-02 -3.508518791002488563e-02 4.744568176147865857e-01 1.508557601039197359e-02
2.561555496992009781e-02 -3.429589340981772927e-02 -3.438211537654371763e-02 9.993600326095918116e-04 6.406456935722688595e-01 -4.316921368682210408e-02 7.448161432078641286e-02 -8.435220613755509134e-02 -3.508518791002489257e-02 4.744568176147866412e-01 1.508557601039197359e-02
2.561555496992009781e-02 -3.429589340981763212e-02 -3.438211537654421029e-02 9.993600326095935463e-04 6.406456935722688595e-01 -4.316921368682182653e-02 7.448161432078698185e-02 -8.435220613755518848e-02 -3.508518791002503828e-02 4.744568176147864191e-01 1.508557601039196838e-02
2.561555496992012210e-02 -3.429589340981780560e-02 -3.438211537654408539e-02 9.993600326095954979e-04 6.406456935722689705e-01 -4.316921368682177101e-02 7.448161432078627409e-02 -8.435220613755510521e-02 -3.508518791002481624e-02 4.744568176147866967e-01 1.508557601039197879e-02
2.561555496992011516e-02 -3.429589340981770151e-02 -3.438211537654381478e-02 9.993600326095918116e-04 6.406456935722688595e-01 -4.316921368682203469e-02 7.448161432078656552e-02 -8.435220613755524399e-02 -3.508518791002499665e-02 4.744568176147865857e-01 1.508557601039196838e-02
2.561555496992011863e-02 -3.429589340981784723e-02 -3.438211537654439764e-02 9.993600326095989674e-04 6.406456935722687485e-01 -4.316921368682161142e-02 7.448161432078657940e-02 -8.435220613755514685e-02 -3.508518791002491338e-02 4.744568176147869742e-01 1.508557601039195450e-02
2.561555496992012904e-02 -3.429589340981784029e-02 -3.438211537654444622e-02 9.993600326095944137e-04 6.406456935722687485e-01 -4.316921368682120203e-02 7.448161432078652389e-02 -8.435220613755546604e-02 -3.508518791002493420e-02 4.744568176147870853e-01 1.508557601039195450e-02
2.561555496992012904e-02 -3.429589340981776396e-02 -3.438211537654461969e-02 9.993600326095987505e-04 6.406456935722686374e-01 -4.316921368682129223e-02 7.448161432078655164e-02 -8.435220613755542440e-02 -3.508518791002491338e-02 4.744568176147870853e-01 1.508557601039194410e-02
2.561555496992012210e-02 -3.429589340981788886e-02 -3.438211537654470989e-02 9.993600326095965821e-04 6.406456935722687485e-01 -4.316921368682109100e-02 7.448161432078700961e-02 -8.435220613755559094e-02 -3.508518791002514930e-02 4.744568176147870298e-01 1.508557601039196318e-02
2.561555496992012557e-02 -3.429589340981796519e-02 -3.438211537654464051e-02 9.993600326095987505e-04 6.406456935722687485e-01 -4.316921368682104243e-02 7.448161432078669042e-02 -8.435220613755543828e-02 -3.508518791002498277e-02 4.744568176147871408e-01 1.508557601039194583e-02
2.561555496992011516e-02 -3.429589340981796519e-02 -3.438211537654461275e-02 9.993600326095989674e-04 6.406456935722688595e-01 -4.316921368682100080e-02 7.448161432078709288e-02 -8.435220613755557706e-02 -3.508518791002519788e-02 4.744568176147868632e-01 1.508557601039193889e-02
2.561555496992011863e-02 -3.429589340981799295e-02 -3.438211537654488337e-02 9.993600326095994010e-04 6.406456935722687485e-01 -4.316921368682066079e-02 7.448161432078626021e-02 -8.435220613755567420e-02 -3.508518791002482318e-02 4.744568176147874183e-01 1.508557601039192675e-02
2.561555496992010128e-02 -3.429589340981813866e-02 -3.438211537654499439e-02 9.993600326096041715e-04 6.406456935722686374e-01 -4.316921368682045956e-02 7.448161432078649613e-02 -8.435220613755553543e-02 -3.508518791002497583e-02 4.744568176147873628e-01 1.508557601039192848e-02
2.561555496992011516e-02 -3.429589340981797907e-02 -3.438211537654460581e-02 9.993600326095981000e-04 6.406456935722687485e-01 -4.316921368682116039e-02 7.448161432078694022e-02 -8.435220613755541053e-02 -3.508518791002508685e-02 4.744568176147868632e-01 1.508557601039193195e-02
2.561555496992011863e-02 -3.429589340981806234e-02 -3.438211537654479316e-02 9.993600326095972326e-04 6.406456935722686374e-01 -4.316921368682066079e-02 7.448161432078684308e-02 -8.435220613755574359e-02 -3.508518791002514237e-02 4.744568176147871408e-01 1.508557601039194583e-02
2.561555496992013251e-02 -3.429589340981795131e-02 -3.438211537654486949e-02 9.993600326095987505e-04 6.406456935722687485e-01 -4.316921368682073712e-02 7.448161432078664879e-02 -8.435220613755560481e-02 -3.508518791002507298e-02 4.744568176147873628e-01 1.508557601039193716e-02
2.561555496992013944e-02 -3.429589340981812479e-02 -3.438211537654502908e-02 9.993600326096028705e-04 6.406456935722685264e-01 -4.316921368682050120e-02 7.448161432078724553e-02 -8.435220613755578523e-02 -3.508518791002528114e-02 4.744568176147872518e-01 1.508557601039193716e-02
2.561555496992010822e-02 -3.429589340981788192e-02 -3.438211537654455030e-02 9.993600326095933295e-04 6.406456935722686374e-01 -4.316921368682075100e-02 7.448161432078689859e-02 -8.435220613755604890e-02 -3.508518791002526727e-02 4.744568176147873073e-01 1.508557601039191634e-02
2.561555496992011169e-02 -3.429589340981791662e-02 -3.438211537654480704e-02 9.993600326095948474e-04 6.406456935722687485e-01 -4.316921368682075100e-02 7.448161432078775901e-02 -8.435220613755610441e-02 -3.508518791002544074e-02 4.744568176147868632e-01 1.508557601039193889e-02
2.561555496992010822e-02 -3.429589340981820805e-02 -3.438211537654510541e-02 9.993600326096022200e-04 6.406456935722687485e-01 -4.316921368682015425e-02 7.448161432078713451e-02 -8.435220613755613217e-02 -3.508518791002531584e-02 4.744568176147874738e-01 1.508557601039192328e-02
2.561555496992013944e-02 -3.429589340981807621e-02 -3.438211537654516092e-02 9.993600326095987505e-04 6.406456935722687485e-01 -4.316921368682028609e-02 7.448161432078719002e-02 -8.435220613755621544e-02 -3.508518791002519788e-02 4.744568176147875294e-01 1.508557601039192501e-02
2.561555496992013597e-02 -3.429589340981821499e-02 -3.438211537654509153e-02 9.993600326095970158e-04 6.406456935722687485e-01 -4.316921368682007792e-02 7.448161432078702349e-02 -8.435220613755614605e-02 -3.508518791002521175e-02 4.744568176147873073e-01 1.508557601039190940e-02
2.561555496992016026e-02 -3.429589340981831908e-02 -3.438211537654569522e-02 9.993600326096074241e-04 6.406456935722687485e-01 -4.316921368681954363e-02 7.448161432078759248e-02 -8.435220613755624319e-02 -3.508518791002553788e-02 4.744568176147873628e-01 1.508557601039190246e-02
2.561555496992011516e-02 -3.429589340981829132e-02 -3.438211537654580624e-02 9.993600326096059062e-04 6.406456935722684154e-01 -4.316921368681939791e-02 7.448161432078757860e-02 -8.435220613755617380e-02 -3.508518791002548237e-02 4.744568176147874183e-01 1.508557601039190420e-02
2.561555496992011863e-02 -3.429589340981833295e-02 -3.438211537654581318e-02 9.993600326096033042e-04 6.406456935722687485e-01 -4.316921368681919668e-02 7.448161432078667654e-02 -8.435220613755629870e-02 -3.508518791002512155e-02 4.744568176147876959e-01 1.508557601039189552e-02
2.561555496992013597e-02 -3.429589340981827050e-02 -3.438211537654548011e-02 9.993600326096004852e-04 6.406456935722684154e-01 -4.316921368681966853e-02 7.448161432078731492e-02 -8.435220613755647912e-02 -3.508518791002530196e-02 4.744568176147878624e-01 1.508557601039189379e-02
2.561555496992013251e-02 -3.429589340981850643e-02 -3.438211537654584787e-02 9.993600326096089420e-04 6.406456935722686374e-01 -4.316921368681923138e-02 7.448161432078721778e-02 -8.435220613755640973e-02 -3.508518791002530196e-02 4.744568176147878624e-01 1.508557601039189726e-02
2.561555496992013944e-02 -3.429589340981842316e-02 -3.438211537654581318e-02 9.993600326096069904e-04 6.406456935722687485e-01 -4.316921368681914117e-02 7.448161432078707900e-02 -8.435220613755631258e-02 -3.508518791002536441e-02 4.744568176147875849e-01 1.508557601039189726e-02
2.561555496992013944e-02 -3.429589340981834683e-02 -3.438211537654581318e-02 9.993600326096087252e-04 6.406456935722687485e-01 -4.316921368681937710e-02 7.448161432078713451e-02 -8.435220613755622932e-02 -3.508518791002532278e-02 4.744568176147876404e-01 1.508557601039189032e-02
2.561555496992014985e-02 -3.429589340981865908e-02 -3.438211537654586869e-02 9.993600326096093757e-04 6.406456935722687485e-01 -4.316921368681903015e-02 7.448161432078671818e-02 -8.435220613755634034e-02 -3.508518791002505910e-02 4.744568176147878624e-01 1.508557601039188512e-02
2.561555496992010822e-02 -3.429589340981853418e-02 -3.438211537654636135e-02 9.993600326096145799e-04 6.406456935722684154e-01 -4.316921368681845422e-02 7.448161432078720390e-02 -8.435220613755643748e-02 -3.508518791002532972e-02 4.744568176147878624e-01 1.508557601039187818e-02
2.561555496992014638e-02 -3.429589340981843010e-02 -3.438211537654579236e-02 9.993600326096080746e-04 6.406456935722686374e-01 -4.316921368681916893e-02 7.448161432078699573e-02 -8.435220613755634034e-02 -3.508518791002523951e-02 4.744568176147876404e-01 1.508557601039189205e-02
2.561555496992014291e-02 -3.429589340981849255e-02 -3.438211537654586175e-02 9.993600326096061231e-04 6.406456935722687485e-01 -4.316921368681909260e-02 7.448161432078742594e-02 -8.435220613755647912e-02 -3.508518791002548931e-02 4.744568176147875849e-01 1.508557601039187818e-02
2.561555496992013597e-02 -3.429589340981879786e-02 -3.438211537654615318e-02 9.993600326096119778e-04 6.406456935722686374e-01 -4.316921368681865545e-02 7.448161432078716226e-02 -8.435220613755656238e-02 -3.508518791002517706e-02 4.744568176147879734e-01 1.508557601039186603e-02
2.561555496992014638e-02 -3.429589340981851336e-02 -3.438211537654618094e-02 9.993600326096143630e-04 6.406456935722684154e-01 -4.316921368681891219e-02 7.448161432078735655e-02 -8.435220613755664565e-02 -3.508518791002532972e-02 4.744568176147881400e-01 1.508557601039184695e-02
2.561555496992012557e-02 -3.429589340981859663e-02 -3.438211537654622257e-02 9.993600326096139293e-04 6.406456935722683044e-01 -4.316921368681855831e-02 7.448161432078750921e-02 -8.435220613755665953e-02 -3.508518791002541992e-02 4.744568176147879734e-01 1.508557601039183654e-02
2.561555496992016026e-02 -3.429589340981862439e-02 -3.438211537654640992e-02 9.993600326096139293e-04 6.406456935722686374e-01 -4.316921368681846810e-02 7.448161432078787003e-02 -8.435220613755708974e-02 -3.508518791002553788e-02 4.744568176147880290e-01 1.508557601039186083e-02
2.561555496992015679e-02 -3.429589340981855500e-02 -3.438211537654625727e-02 9.993600326096106767e-04 6.406456935722687485e-01 -4.316921368681844728e-02 7.448161432078725941e-02 -8.435220613755699259e-02 -3.508518791002540604e-02 4.744568176147881400e-01 1.508557601039186777e-02
2.561555496992013251e-02 -3.429589340981859663e-02 -3.438211537654665279e-02 9.993600326096169651e-04 6.406456935722681933e-01 -4.316921368681826687e-02 7.448161432078743982e-02 -8.435220613755672892e-02 -3.508518791002536441e-02 4.744568176147882510e-01 1.508557601039185216e-02
2.561555496992011863e-02 -3.429589340981855500e-02 -3.438211537654654870e-02 9.993600326096173988e-04 6.406456935722685264e-01 -4.316921368681829463e-02 7.448161432078707900e-02 -8.435220613755682606e-02 -3.508518791002527420e-02 4.744568176147882510e-01 1.508557601039184175e-02
2.561555496992014291e-02 -3.429589340981865908e-02 -3.438211537654686095e-02 9.993600326096197840e-04 6.406456935722686374e-01 -4.316921368681804483e-02 7.448161432078806432e-02 -8.435220613755697872e-02 -3.508518791002568360e-02 4.744568176147879734e-01 1.508557601039183654e-02
2.561555496992014291e-02 -3.429589340981857581e-02 -3.438211537654684707e-02 9.993600326096228198e-04 6.406456935722686374e-01 -4.316921368681817667e-02 7.448161432078743982e-02 -8.435220613755652075e-02 -3.508518791002543380e-02 4.744568176147879179e-01 1.508557601039183654e-02
2.561555496992014638e-02 -3.429589340981858275e-02 -3.438211537654687483e-02 9.993600326096178325e-04 6.406456935722685264e-01 -4.316921368681791993e-02 7.448161432078728716e-02 -8.435220613755678443e-02 -3.508518791002538523e-02 4.744568176147881955e-01 1.508557601039184348e-02
2.561555496992017067e-02 -3.429589340981877010e-02 -3.438211537654686095e-02 9.993600326096206514e-04 6.406456935722687485e-01 -4.316921368681773952e-02 7.448161432078727329e-02 -8.435220613755702035e-02 -3.508518791002545462e-02 4.744568176147883620e-01 1.508557601039183481e-02
2.561555496992015332e-02 -3.429589340981863826e-02 -3.438211537654697197e-02 9.993600326096226030e-04 6.406456935722684154e-01 -4.316921368681803095e-02 7.448161432078764799e-02 -8.435220613755702035e-02 -3.508518791002541298e-02 4.744568176147883620e-01 1.508557601039182787e-02
2.561555496992016026e-02 -3.429589340981869378e-02 -3.438211537654710381e-02 9.993600326096236872e-04 6.406456935722687485e-01 -4.316921368681779503e-02 7.448161432078763411e-02 -8.435220613755699259e-02 -3.508518791002561421e-02 4.744568176147881400e-01 1.508557601039182614e-02
2.561555496992015332e-02 -3.429589340981870765e-02 -3.438211537654735361e-02 9.993600326096256387e-04 6.406456935722681933e-01 -4.316921368681739951e-02 7.448161432078730104e-02 -8.435220613755686769e-02 -3.508518791002532972e-02 4.744568176147883620e-01 1.508557601039181573e-02
2.561555496992011863e-02 -3.429589340981867990e-02 -3.438211537654688871e-02 9.993600326096191335e-04 6.406456935722687485e-01 -4.316921368681771870e-02 7.448161432078756472e-02 -8.435220613755711749e-02 -3.508518791002548931e-02 4.744568176147881400e-01 1.508557601039182267e-02
2.561555496992014291e-02 -3.429589340981876316e-02 -3.438211537654688871e-02 9.993600326096236872e-04 6.406456935722685264e-01 -4.316921368681782278e-02 7.448161432078759248e-02 -8.435220613755672892e-02 -3.508518791002550319e-02 4.744568176147880290e-01 1.508557601039182440e-02
2.561555496992013944e-02 -3.429589340981888806e-02 -3.438211537654715239e-02 9.993600326096223861e-04 6.406456935722687485e-01 -4.316921368681720522e-02 7.448161432078702349e-02 -8.435220613755717300e-02 -3.508518791002532972e-02 4.744568176147883620e-01 1.508557601039182267e-02
2.561555496992014638e-02 -3.429589340981884643e-02 -3.438211537654705524e-02 9.993600326096210851e-04 6.406456935722687485e-01 -4.316921368681736482e-02 7.448161432078719002e-02 -8.435220613755710362e-02 -3.508518791002532972e-02 4.744568176147881955e-01 1.508557601039182787e-02
2.561555496992015332e-02 -3.429589340981883949e-02 -3.438211537654727729e-02 9.993600326096265061e-04 6.406456935722685264e-01 -4.316921368681718441e-02 7.448161432078749533e-02 -8.435220613755703423e-02 -3.508518791002553094e-02 4.744568176147881400e-01 1.508557601039180358e-02
2.561555496992018108e-02 -3.429589340981908929e-02 -3.438211537654749933e-02 9.993600326096258556e-04 6.406456935722685264e-01 -4.316921368681699012e-02 7.448161432078757860e-02 -8.435220613755708974e-02 -3.508518791002560727e-02 4.744568176147885841e-01 1.508557601039181573e-02
2.561555496992014638e-02 -3.429589340981883949e-02 -3.438211537654733280e-02 9.993600326096243377e-04 6.406456935722686374e-01 -4.316921368681699706e-02 7.448161432078696798e-02 -8.435220613755702035e-02 -3.508518791002521869e-02 4.744568176147882510e-01 1.508557601039182267e-02
2.561555496992016026e-02 -3.429589340981906154e-02 -3.438211537654758954e-02 9.993600326096232535e-04 6.406456935722687485e-01 -4.316921368681645582e-02 7.448161432078762023e-02 -8.435220613755767260e-02 -3.508518791002560727e-02 4.744568176147884175e-01 1.508557601039178797e-02
2.561555496992015332e-02 -3.429589340981897133e-02 -3.438211537654771444e-02 9.993600326096262892e-04 6.406456935722687485e-01 -4.316921368681642113e-02 7.448161432078745370e-02 -8.435220613755767260e-02 -3.508518791002551013e-02 4.744568176147885841e-01 1.508557601039178450e-02
2.561555496992016720e-02 -3.429589340981893664e-02 -3.438211537654792260e-02 9.993600326096297587e-04 6.406456935722687485e-01 -4.316921368681643500e-02 7.448161432078728716e-02 -8.435220613755720076e-02 -3.508518791002556564e-02 4.744568176147883620e-01 1.508557601039180532e-02
2.561555496992014985e-02 -3.429589340981901990e-02 -3.438211537654771444e-02 9.993600326096269398e-04 6.406456935722686374e-01 -4.316921368681626153e-02 7.448161432078732880e-02 -8.435220613755767260e-02 -3.508518791002550319e-02 4.744568176147886951e-01 1.508557601039177062e-02
2.561555496992013597e-02 -3.429589340981899909e-02 -3.438211537654802669e-02 9.993600326096330113e-04 6.406456935722686374e-01 -4.316921368681621990e-02 7.448161432078743982e-02 -8.435220613755746444e-02 -3.508518791002556564e-02 4.744568176147886951e-01 1.508557601039177062e-02
2.561555496992013251e-02 -3.429589340981914480e-02 -3.438211537654817934e-02 9.993600326096293250e-04 6.406456935722685264e-01 -4.316921368681570642e-02 7.448161432078680144e-02 -8.435220613755747832e-02 -3.508518791002521175e-02 4.744568176147887506e-01 1.508557601039177236e-02
2.561555496992013944e-02 -3.429589340981901296e-02 -3.438211537654779076e-02 9.993600326096260724e-04 6.406456935722685264e-01 -4.316921368681606030e-02 7.448161432078685695e-02 -8.435220613755771424e-02 -3.508518791002531584e-02 4.744568176147888616e-01 1.508557601039177583e-02
2.561555496992017067e-02 -3.429589340981920725e-02 -3.438211537654826955e-02 9.993600326096308429e-04 6.406456935722686374e-01 -4.316921368681573418e-02 7.448161432078759248e-02 -8.435220613755776975e-02 -3.508518791002566278e-02 4.744568176147888616e-01 1.508557601039177409e-02
2.561555496992016373e-02 -3.429589340981920031e-02 -3.438211537654801975e-02 9.993600326096293250e-04 6.406456935722685264e-01 -4.316921368681576887e-02 7.448161432078673205e-02 -8.435220613755724239e-02 -3.508518791002539911e-02 4.744568176147886396e-01 1.508557601039178277e-02
2.561555496992014291e-02 -3.429589340981908929e-02 -3.438211537654828343e-02 9.993600326096308429e-04 6.406456935722684154e-01 -4.316921368681563009e-02 7.448161432078721778e-02 -8.435220613755763097e-02 -3.508518791002547543e-02 4.744568176147889171e-01 1.508557601039177062e-02
2.561555496992016373e-02 -3.429589340981913093e-02 -3.438211537654845690e-02 9.993600326096343123e-04 6.406456935722686374e-01 -4.316921368681542887e-02 7.448161432078731492e-02 -8.435220613755770036e-02 -3.508518791002548931e-02 4.744568176147888061e-01 1.508557601039177062e-02
2.561555496992015332e-02 -3.429589340981908929e-02 -3.438211537654811689e-02 9.993600326096278071e-04 6.406456935722684154e-01 -4.316921368681559540e-02 7.448161432078645450e-02 -8.435220613755774199e-02 -3.508518791002512849e-02 4.744568176147893057e-01 1.508557601039177756e-02
2.561555496992016373e-02 -3.429589340981924195e-02 -3.438211537654844302e-02 9.993600326096271566e-04 6.406456935722685264e-01 -4.316921368681518600e-02 7.448161432078755084e-02 -8.435220613755825547e-02 -3.508518791002560033e-02 4.744568176147889726e-01 1.508557601039176195e-02
2.561555496992013251e-02 -3.429589340981933215e-02 -3.438211537654847771e-02 9.993600326096297587e-04 6.406456935722687485e-01 -4.316921368681510968e-02 7.448161432078756472e-02 -8.435220613755828323e-02 -3.508518791002552401e-02 4.744568176147888616e-01 1.508557601039174460e-02
2.561555496992018802e-02 -3.429589340981948481e-02 -3.438211537654878996e-02 9.993600326096321439e-04 6.406456935722685264e-01 -4.316921368681471416e-02 7.448161432078771738e-02 -8.435220613755828323e-02 -3.508518791002581544e-02 4.744568176147891392e-01 1.508557601039174113e-02
2.561555496992017067e-02 -3.429589340981940154e-02 -3.438211537654896344e-02 9.993600326096353965e-04 6.406456935722686374e-01 -4.316921368681468640e-02 7.448161432078730104e-02 -8.435220613755815833e-02 -3.508518791002544074e-02 4.744568176147893057e-01 1.508557601039174113e-02
2.561555496992017067e-02 -3.429589340981941542e-02 -3.438211537654892874e-02 9.993600326096332281e-04 6.406456935722683044e-01 -4.316921368681465865e-02 7.448161432078802269e-02 -8.435220613755839425e-02 -3.508518791002581544e-02 4.744568176147892502e-01 1.508557601039173246e-02
2.561555496992014638e-02 -3.429589340981949869e-02 -3.438211537654877609e-02 9.993600326096362639e-04 6.406456935722685264e-01 -4.316921368681461701e-02 7.448161432078739819e-02 -8.435220613755819996e-02 -3.508518791002559339e-02 4.744568176147891947e-01 1.508557601039174460e-02
2.561555496992016720e-02 -3.429589340981948481e-02 -3.438211537654872058e-02 9.993600326096332281e-04 6.406456935722683044e-01 -4.316921368681480436e-02 7.448161432078800881e-02 -8.435220613755847752e-02 -3.508518791002580156e-02 4.744568176147893057e-01 1.508557601039172552e-02
2.561555496992017414e-02 -3.429589340981962359e-02 -3.438211537654906752e-02 9.993600326096312766e-04 6.406456935722686374e-01 -4.316921368681416599e-02 7.448161432078805044e-02 -8.435220613755864405e-02 -3.508518791002592646e-02 4.744568176147891392e-01 1.508557601039173766e-02
2.561555496992019149e-02 -3.429589340981949869e-02 -3.438211537654908834e-02 9.993600326096334450e-04 6.406456935722686374e-01 -4.316921368681449905e-02 7.448161432078824473e-02 -8.435220613755863017e-02 -3.508518791002586401e-02 4.744568176147891392e-01 1.508557601039172032e-02
2.561555496992017414e-02 -3.429589340981964440e-02 -3.438211537654904670e-02 9.993600326096375649e-04 6.406456935722683044e-01 -4.316921368681449905e-02 7.448161432078866107e-02 -8.435220613755850527e-02 -3.508518791002615544e-02 4.744568176147893057e-01 1.508557601039171338e-02
2.561555496992017761e-02 -3.429589340981951257e-02 -3.438211537654918548e-02 9.993600326096308429e-04 6.406456935722683044e-01 -4.316921368681421456e-02 7.448161432078848065e-02 -8.435220613755904651e-02 -3.508518791002594728e-02 4.744568176147895278e-01 1.508557601039171338e-02
2.561555496992016720e-02 -3.429589340981947093e-02 -3.438211537654924793e-02 9.993600326096304092e-04 6.406456935722685264e-01 -4.316921368681405496e-02 7.448161432078811983e-02 -8.435220613755893548e-02 -3.508518791002580156e-02 4.744568176147892502e-01 1.508557601039171338e-02
2.561555496992017067e-02 -3.429589340981935991e-02 -3.438211537654961569e-02 9.993600326096351797e-04 6.406456935722686374e-01 -4.316921368681404803e-02 7.448161432078874433e-02 -8.435220613755887997e-02 -3.508518791002619708e-02 4.744568176147894167e-01 1.508557601039172032e-02
2.561555496992018108e-02 -3.429589340981946399e-02 -3.438211537654952549e-02 9.993600326096356134e-04 6.406456935722685264e-01 -4.316921368681392313e-02 7.448161432078824473e-02 -8.435220613755881058e-02 -3.508518791002592646e-02 4.744568176147895278e-01 1.508557601039169777e-02
2.561555496992017414e-02 -3.429589340981962359e-02 -3.438211537654944222e-02 9.993600326096358302e-04 6.406456935722684154e-01 -4.316921368681392313e-02 7.448161432078859168e-02 -8.435220613755887997e-02 -3.508518791002609993e-02 4.744568176147894167e-01 1.508557601039170123e-02
2.561555496992014291e-02 -3.429589340981949869e-02 -3.438211537654921324e-02 9.993600326096288913e-04 6.406456935722687485e-01 -4.316921368681408966e-02 7.448161432078874433e-02 -8.435220613755911589e-02 -3.508518791002619014e-02 4.744568176147893057e-01 1.508557601039169083e-02
2.561555496992018802e-02 -3.429589340981930440e-02 -3.438211537654947692e-02 9.993600326096325776e-04 6.406456935722686374e-01 -4.316921368681404803e-02 7.448161432078898025e-02 -8.435220613755899099e-02 -3.508518791002629422e-02 4.744568176147890282e-01 1.508557601039169777e-02
2.561555496992018802e-02 -3.429589340981965134e-02 -3.438211537654961569e-02 9.993600326096343123e-04 6.406456935722683044e-01 -4.316921368681356924e-02 7.448161432078899413e-02 -8.435220613755937957e-02 -3.508518791002633586e-02 4.744568176147896388e-01 1.508557601039169777e-02
2.561555496992016026e-02 -3.429589340981963053e-02 -3.438211537654931732e-02 9.993600326096273734e-04 6.406456935722687485e-01 -4.316921368681361781e-02 7.448161432078843902e-02 -8.435220613755937957e-02 -3.508518791002612075e-02 4.744568176147894167e-01 1.508557601039169950e-02
2.561555496992019149e-02 -3.429589340981966522e-02 -3.438211537654949079e-02 9.993600326096297587e-04 6.406456935722685264e-01 -4.316921368681361088e-02 7.448161432078917454e-02 -8.435220613755976815e-02 -3.508518791002641218e-02 4.744568176147896388e-01 1.508557601039166481e-02
2.561555496992017067e-02 -3.429589340981967910e-02 -3.438211537654967120e-02 9.993600326096308429e-04 6.406456935722689705e-01 -4.316921368681349291e-02 7.448161432078953537e-02 -8.435220613755976815e-02 -3.508518791002663423e-02 4.744568176147894722e-01 1.508557601039167001e-02
2.561555496992017414e-02 -3.429589340981958889e-02 -3.438211537654974753e-02 9.993600326096321439e-04 6.406456935722687485e-01 -4.316921368681328475e-02 7.448161432078906352e-02 -8.435220613755961550e-02 -3.508518791002645382e-02 4.744568176147893612e-01 1.508557601039168042e-02
2.561555496992014638e-02 -3.429589340981950563e-02 -3.438211537654995570e-02 9.993600326096319271e-04 6.406456935722688595e-01 -4.316921368681318066e-02 7.448161432078978517e-02 -8.435220613755975427e-02 -3.508518791002667586e-02 4.744568176147889171e-01 1.508557601039168215e-02
2.561555496992018108e-02 -3.429589340981956808e-02 -3.438211537654992794e-02 9.993600326096312766e-04 6.406456935722689705e-01 -4.316921368681336107e-02 7.448161432078947986e-02 -8.435220613755967101e-02 -3.508518791002649545e-02 4.744568176147891392e-01 1.508557601039168389e-02
2.561555496992017067e-02 -3.429589340981972767e-02 -3.438211537654981692e-02 9.993600326096323608e-04 6.406456935722687485e-01 -4.316921368681308352e-02 7.448161432078941047e-02 -8.435220613755976815e-02 -3.508518791002649545e-02 4.744568176147892502e-01 1.508557601039168389e-02
2.561555496992013251e-02 -3.429589340981942930e-02 -3.438211537654967120e-02 9.993600326096291082e-04 6.406456935722686374e-01 -4.316921368681327087e-02 7.448161432078899413e-02 -8.435220613755987917e-02 -3.508518791002637055e-02 4.744568176147896388e-01 1.508557601039166307e-02
2.561555496992016720e-02 -3.429589340981949869e-02 -3.438211537654967814e-02 9.993600326096288913e-04 6.406456935722684154e-01 -4.316921368681323617e-02 7.448161432078949373e-02 -8.435220613755989305e-02 -3.508518791002657872e-02 4.744568176147893612e-01 1.508557601039167001e-02
2.561555496992015679e-02 -3.429589340981956114e-02 -3.438211537654983080e-02 9.993600326096258556e-04 6.406456935722688595e-01 -4.316921368681318760e-02 7.448161432078961863e-02 -8.435220613756008734e-02 -3.508518791002662035e-02 4.744568176147894167e-01 1.508557601039167695e-02
2.561555496992017414e-02 -3.429589340981962359e-02 -3.438211537654999039e-02 9.993600326096288913e-04 6.406456935722688595e-01 -4.316921368681304882e-02 7.448161432078974353e-02 -8.435220613756022612e-02 -3.508518791002651627e-02 4.744568176147892502e-01 1.508557601039169430e-02
2.561555496992015332e-02 -3.429589340981963747e-02 -3.438211537654996264e-02 9.993600326096319271e-04 6.406456935722687485e-01 -4.316921368681300025e-02 7.448161432078970190e-02 -8.435220613756010122e-02 -3.508518791002666198e-02 4.744568176147896943e-01 1.508557601039167174e-02
